;"1143,5";"1144";"1144,5";"1145";"1145,5";"1146";"1146,5";"1147";"1147,5";"1148";"1148,5";"1149";"1149,5";"1150";"1154";"1154,5";"1155";"1155,5";"1156";"1156,5";"1157";"1157,5";"1158";"1158,5";"1159";"1159,5";"1160";"1160,5";"1161";"1161,5";"1162";"1162,5";"1163";"1163,5";"1164";"1164,5";"1165";"1165,5";"1166";"1166,5";"1167";"1167,5";"1168";"1168,5";"1169";"1169,5";"1170";"1170,5";"1171";"1171,5";"1172";"1183";"1183,5";"1184";"1184,5";"1185";"1185,5";"1186";"1186,5";"1187";"1187,5";"1188";"1188,5";"1189";"1189,5";"1190";"1190,5";"1191";"1191,5";"1192";"1192,5";"1193";"1203";"1203,5";"1204";"1204,5";"1205";"1205,5";"1206";"1206,5";"1207";"1207,5";"1208";"1208,5";"1209";"1209,5";"1210";"1210,5";"1211";"1211,5";"1212";"1212,5";"1213";"1213,5";"1214";"1214,5";"1215";"1215,5";"1216";"1216,5";"1217";"1217,5";"1218";"1218,5";"1219";"1219,5";"1220";"1220,5";"1250,5";"1251";"1251,5";"1252";"1252,5";"1253";"1253,5";"1254";"1254,5";"1255";"1267";"1267,5";"1268";"1268,5";"1269";"1269,5";"1270";"1270,5";"1271";"1271,5";"1276";"1276,5";"1277";"1277,5";"1278";"1278,5";"1279";"1279,5";"1280";"1280,5";"1281";"1281,5";"1282";"1282,5";"1294,5";"1295";"1295,5";"1296";"1296,5";"1297";"1297,5";"1298";"1298,5";"1299";"1299,5";"1300";"1300,5";"1301";"1301,5";"1317,5";"1318";"1318,5";"1319";"1319,5";"1320";"1320,5";"1321";"1321,5";"1322";"1322,5";"1337,5";"1338";"1338,5";"1339";"1339,5";"1340";"1340,5";"1341";"1341,5";"1342";"1342,5";"1343";"1343,5";"1344";"1344,5";"1345";"1345,5";"1346";"1346,5";"1347";"1347,5";"1348";"1348,5";"1349";"1349,5";"1350";"1350,5";"1351";"1351,5";"1352";"1352,5";"1353";"1353,5";"1354";"1354,5";"1407";"1407,5";"1408";"1408,5";"1409";"1409,5";"1410";"1410,5";"1411";"1411,5";"1412";"1412,5";"1413";"1413,5";"1414";"1414,5";"1415";"1415,5";"1416";"1416,5";"1417";"1417,5";"1418";"1418,5";"1419";"1487,5";"1488";"1488,5";"1489";"1489,5";"1490";"1490,5";"1491";"1491,5";"1492";"1492,5";"1493";"1493,5";"1494";"1494,5";"1495";"1495,5";"1496";"1496,5";"1497";"1497,5";"1498";"1498,5";"1499";"1499,5";"1500";"1500,5";"1501";"1501,5";"1502";"1502,5";"1503";"1503,5";"1504";"1504,5";"1505";"1505,5";"1506";"1506,5";"1507";"1507,5";"1508";"1508,5";"1509";"1509,5";"1510";"1510,5";"1511";"1511,5";"1512";"1512,5";"1513";"1513,5";"1514";"1514,5";"1515";"1515,5";"1516";"1516,5";"1517";"1517,5";"1518";"1518,5";"1519";"1519,5";"1520";"1520,5";"1528";"1528,5";"1529";"1529,5";"1530";"1530,5";"1531";"1531,5";"1532";"1538,5";"1539";"1539,5";"1540";"1540,5";"1541";"1541,5";"1542";"1551,5";"1552";"1552,5";"1553";"1553,5";"1554";"1554,5";"1555";"1555,5";"1556";"1556,5";"1557";"1557,5";"1558";"1558,5";"1559";"1559,5";"1560";"1560,5";"1561";"1561,5";"1562";"1562,5";"1563";"1563,5";"1564";"1564,5";"1565";"1565,5";"1566";"1570,5";"1571";"1571,5";"1572";"1572,5";"1573";"1573,5";"1574";"1574,5";"1575";"1575,5";"1576";"1576,5";"1577";"1577,5";"1578";"1578,5";"1579";"1579,5";"1580";"1580,5";"1581";"1581,5";"1582";"1582,5";"1583";"1583,5";"1584";"1584,5";"1585";"1600";"1600,5";"1601";"1601,5";"1602";"1602,5";"1603";"1603,5";"1604";"1604,5";"1605";"1605,5";"1606";"1606,5";"1617,5";"1618";"1618,5";"1619";"1619,5";"1620";"1620,5";"1621";"1621,5";"1622";"1622,5";"1623";"1623,5";"1624";"1624,5";"1625";"1625,5";"1626";"1626,5";"1627";"1627,5";"1628";"1628,5";"1629";"1629,5";"1630";"1644";"1644,5";"1645";"1645,5";"1646";"1646,5";"1647";"1647,5";"1648";"1648,5";"1649";"1649,5";"1650";"1650,5";"1651";"1651,5";"1652";"1652,5";"1653";"1653,5";"1654";"1654,5";"1655";"1655,5";"1656";"1656,5";"1657";"1657,5";"1658";"1658,5";"1659";"1659,5";"1660";"1666";"1666,5";"1667";"1667,5";"1668";"1668,5";"1669";"1669,5";"1670";"1670,5";"1671";"1671,5";"1672";"1672,5";"1673";"1673,5";"1674";"1674,5";"1675";"1675,5";"1676";"1676,5";"1679";"1679,5";"1680";"1680,5";"1681";"1681,5";"1682";"1682,5";"1683";"1683,5";"1684";"1684,5";"1685";"1685,5";"1686";"1686,5";"1687";"1687,5";"1688";"1688,5";"1689";"1689,5";"1690";"1690,5";"1691";"1691,5";"1692";"1692,5";"1693";"1693,5";"1694";"1694,5";"1695";"1695,5";"1696";"1696,5";"1697";"1697,5";"1698";"1698,5";"1699";"1699,5";"1700";"1700,5";"1701";"1701,5";"1702";"1702,5";"1715,5";"1716";"1716,5";"1717";"1717,5";"1733";"1733,5";"1734";"1734,5";"1735";"1735,5";"1736";"1736,5";"1737";"1737,5";"1738";"1738,5";"1739";"1739,5";"1740";"1740,5";"1741";"1741,5";"1742";"1742,5";"1743";"1743,5";"1744";"1744,5";"1745";"1745,5";"1746";"1746,5";"1747";"1747,5";"1754";"1754,5";"1755";"1755,5";"1756";"1756,5";"1757";"1757,5";"1758";"1758,5";"1759";"1759,5";"1760";"1760,5";"1761";"1761,5";"1762";"1762,5";"1771";"1771,5";"1772";"1772,5";"1773";"1773,5";"1774";"1774,5";"1775";"1775,5";"1776";"1776,5";"1777";"1777,5";"1778";"1778,5";"1779";"1779,5";"1780";"1780,5";"1781";"1781,5";"1782";"1782,5";"1783";"1783,5";"1784";"1784,5";"1785";"1785,5";"1786";"1786,5";"1787";"1787,5";"1788";"1788,5";"1845";"1845,5";"1846";"1846,5";"1847";"1847,5";"1848";"1848,5";"1849";"1849,5";"1850";"1850,5";"1851";"1851,5";"1852";"1852,5";"1853";"1853,5";"1854";"1854,5";"1855";"1855,5";"1856";"1856,5";"1857";"1857,5";"1861";"1861,5";"1862";"1862,5";"1863";"1863,5";"1864";"1864,5";"1865";"1865,5";"1866";"1866,5";"1867";"1867,5";"1868";"1868,5";"1869";"1869,5";"1870";"1870,5";"1871";"1871,5";"1872";"1872,5";"1873";"1873,5";"1874";"1874,5";"1875";"1875,5";"1876";"1876,5";"1877";"1877,5";"1878";"1878,5";"1879";"1879,5";"1880";"1880,5";"1881";"1881,5";"1882";"1882,5";"1883";"1883,5";"1889";"1889,5";"1890";"1890,5";"1891";"1891,5";"1892";"1892,5";"1900";"1900,5";"1901";"1901,5";"1902";"1902,5";"1903";"1903,5";"1904";"1904,5";"1905";"1905,5";"1906";"1906,5";"1907";"1907,5";"1908";"1937";"1937,5";"1938";"1938,5";"1939";"1939,5";"1940";"1940,5";"1941";"1941,5";"1942";"1942,5";"1943";"1943,5";"1944";"1944,5";"1945";"1945,5";"1946";"1946,5";"1947";"1947,5";"1948";"1948,5";"1949";"1949,5";"1969";"1969,5";"1970";"1970,5";"1971";"1971,5";"1972";"1972,5";"1973";"1973,5";"1974";"1974,5";"1975";"1975,5";"1976";"1976,5";"1977";"1977,5";"1978";"1978,5";"1979";"1979,5";"1980";"1980,5";"1981";"1981,5";"1982";"1982,5";"1983";"1983,5";"1984";"1984,5";"1985";"1985,5";"1986";"1986,5";"1987";"1987,5";"1988";"1988,5";"1989";"1989,5";"1990";"1990,5";"1991";"1991,5";"1992";"1992,5";"1993";"1993,5";"1994";"1994,5";"1995";"2033,5";"2034";"2034,5";"2035";"2035,5";"2036";"2036,5";"2037";"2037,5";"2038";"2038,5";"2039";"2039,5";"2040";"2040,5";"2041";"2041,5";"2042";"2042,5";"2043";"2043,5";"2044";"2044,5";"2045";"2045,5";"2046";"2046,5";"2053,5";"2054";"2054,5";"2055";"2055,5";"2056";"2056,5";"2057";"2057,5";"2058";"2058,5";"2059";"2059,5";"2066";"2066,5";"2067";"2067,5";"2068";"2068,5";"2069";"2069,5";"2070";"2070,5";"2071";"2071,5";"2072";"2072,5";"2073";"2073,5";"2074";"2074,5";"2075";"2075,5";"2076";"2076,5";"2077";"2077,5";"2078";"2078,5";"2079";"2079,5";"2080";"2080,5";"2081";"2081,5";"2082";"2082,5";"2083";"2083,5";"2084";"2084,5";"2085";"2085,5";"2086";"2086,5";"2087";"2087,5";"2088";"2088,5";"2089";"2089,5";"2090";"2090,5";"2091";"2091,5";"2092";"2092,5";"2093";"2093,5";"2094";"2094,5";"2095";"2095,5";"2096";"2096,5";"2097";"2097,5";"2098";"2098,5";"2099";"2099,5";"2100";"2100,5";"2101";"2127";"2127,5";"2128";"2128,5";"2129";"2129,5";"2130";"2130,5";"2131";"2131,5";"2146";"2146,5";"2147";"2147,5";"2148";"2148,5";"2149";"2149,5";"2150";"2150,5";"2151";"2151,5";"2152";"2152,5";"2153";"2153,5";"2154";"2154,5";"2155";"2155,5";"2156";"2156,5";"2157";"2157,5";"2158";"2158,5";"2159";"2159,5";"2160";"2160,5";"2161";"2161,5";"2162";"2162,5";"2163";"2163,5";"2164";"2164,5";"2165";"2165,5";"2166";"2166,5";"2167";"2167,5";"2168";"2168,5";"2169";"2169,5";"2170";"2170,5";"2171";"2171,5";"2172";"2172,5";"2173";"2173,5";"2174";"2174,5";"2175";"2175,5";"2176";"2176,5";"2177";"2177,5";"2178";"2178,5";"2179";"2179,5";"2180";"2180,5";"2181";"2181,5";"2182";"2182,5";"2183";"2183,5";"2184";"2184,5";"2185";"2185,5";"2186";"2186,5";"2187";"2187,5";"2188";"2188,5";"2189";"2189,5";"2227";"2227,5";"2228";"2228,5";"2229";"2229,5";"2230";"2230,5";"2231";"2231,5";"2232";"2232,5";"2233";"2233,5";"2234";"2234,5";"2235";"2235,5";"2236";"2236,5";"2244,5";"2245";"2245,5";"2246";"2246,5";"2247";"2247,5";"2248";"2248,5";"2249";"2249,5";"2250";"2250,5";"2251";"2251,5";"2255";"2255,5";"2256";"2256,5";"2257";"2257,5";"2258";"2258,5";"2259";"2259,5";"2260";"2260,5";"2261";"2270,5";"2271";"2271,5";"2272";"2272,5";"2273";"2273,5";"2274";"2274,5";"2275";"2275,5";"2281,5";"2282";"2282,5";"2283";"2283,5";"2284";"2284,5";"2289,5";"2290";"2290,5";"2291";"2291,5";"2292";"2292,5";"2293";"2293,5";"2294";"2294,5";"2295";"2295,5";"2296";"2296,5";"2297";"2297,5";"2298";"2298,5";"2299";"2307,5";"2308";"2308,5";"2309";"2309,5";"2310";"2310,5";"2311";"2311,5";"2312";"2312,5";"2313";"2319";"2319,5";"2320";"2325,5";"2326";"2326,5";"2327";"2327,5";"2328";"2328,5";"2329";"2329,5";"2330";"2330,5";"2331";"2331,5";"2332";"2332,5";"2333";"2333,5";"2334";"2334,5";"2335";"2335,5";"2336";"2336,5";"2337";"2337,5";"2348";"2348,5";"2349";"2349,5";"2350";"2350,5";"2351";"2351,5";"2352";"2352,5";"2353";"2353,5";"2354";"2354,5";"2355";"2359";"2359,5";"2360";"2360,5";"2361";"2361,5";"2362";"2362,5";"2363";"2363,5";"2364";"2364,5";"2404";"2404,5";"2405";"2405,5";"2406";"2406,5";"2407";"2407,5";"2408";"2408,5";"2440";"2440,5";"2441";"2441,5";"2442";"2442,5";"2443";"2443,5";"2444";"2444,5";"2461,5";"2462";"2462,5";"2463";"2463,5";"2464";"2475";"2475,5";"2476";"2489,5";"2490";"2490,5";"2491";"2491,5";"2492"
"Factor-1";-0.003439394;-0.003625403;-0.003794065;-0.003941076;-0.004061974;-0.00415365;-0.004214302;-0.004242724;-0.004239032;-0.00420388;-0.004138929;-0.004045871;-0.003927252;-0.003785534;-0.002456689;-0.002375878;-0.002335042;-0.002335054;-0.002375155;-0.002451746;-0.002559065;-0.002691446;-0.002841908;-0.003004299;-0.003172982;-0.003342838;-0.00351048;-0.00367278;-0.003827067;-0.003970518;-0.004101278;-0.004216923;-0.004314879;-0.004393016;-0.004450333;-0.004485657;-0.004499864;-0.004493643;-0.004469931;-0.004431209;-0.004381038;-0.004322479;-0.004259229;-0.004194337;-0.004130619;-0.004071766;-0.004021039;-0.003981762;-0.003959405;-0.003957471;-0.003981444;-0.006733685;-0.006418275;-0.006029123;-0.005568436;-0.005038824;-0.004444017;-0.003788927;-0.003078284;-0.002317501;-0.001511838;-0.0006664367;0.0002125662;0.001119404;0.002048557;0.00299303;0.003945848;0.004899398;0.005844998;0.00677434;0.007677931;0.008547066;0.01363683;0.01353282;0.0134345;0.01334389;0.01326144;0.01318652;0.01311807;0.01305368;0.01299089;0.0129272;0.01286023;0.01278767;0.01270723;0.01261709;0.01251522;0.01240003;0.01227057;0.01212442;0.01196109;0.01177906;0.01157766;0.01135692;0.01111634;0.01085761;0.01058063;0.01028696;0.009977871;0.009655322;0.009321761;0.008979067;0.008630238;0.008278779;0.007927427;0.007580204;0.007240563;0.006912411;-0.002202052;-0.002051464;-0.001903997;-0.001759463;-0.00161717;-0.001476262;-0.001335511;-0.001194846;-0.001053145;-0.000910874;0.003026811;0.003180461;0.003318582;0.003437553;0.003533161;0.003602335;0.003641056;0.00364826;0.00362253;0.003564536;0.002147183;0.00198006;0.001828819;0.001694791;0.001580096;0.001484834;0.001407473;0.001346575;0.001298886;0.00126092;0.001229344;0.001200631;0.001171311;0.001138438;-0.001340082;-0.001472586;-0.00160683;-0.001740593;-0.001871481;-0.001996287;-0.002111665;-0.002214388;-0.002302265;-0.002374158;-0.002429062;-0.002467896;-0.002492159;-0.002503432;-0.00250405;-0.003807469;-0.003997103;-0.004178014;-0.004347778;-0.004505932;-0.004652721;-0.004789092;-0.004918164;-0.005042611;-0.005166278;-0.005292194;-0.01195656;-0.01202701;-0.01206387;-0.01206443;-0.01202704;-0.01194976;-0.01183149;-0.01167189;-0.01147052;-0.01122791;-0.01094478;-0.01062248;-0.01026171;-0.009864823;-0.009433867;-0.008971371;-0.008480615;-0.007964956;-0.007426592;-0.006869543;-0.006295633;-0.005706048;-0.005101507;-0.004482232;-0.003846382;-0.003192001;-0.002516607;-0.001816577;-0.001088549;-0.0003290959;0.0004641149;0.001294015;0.002161833;0.003067132;0.004009167;-0.09045698;-0.09370895;-0.09678451;-0.09962145;-0.102155;-0.1043193;-0.1060503;-0.1072863;-0.1079699;-0.108052;-0.1074897;-0.1062517;-0.1043164;-0.1016747;-0.09832969;-0.09429751;-0.08960685;-0.08429907;-0.07842648;-0.07205137;-0.06524598;-0.05808775;-0.05066071;-0.04304919;-0.03533898;0.001745924;0.001766932;0.001761069;0.001728334;0.001667102;0.001577154;0.001460518;0.00131751;0.001151929;0.0009670444;0.0007664601;0.0005538404;0.000334252;0.000111991;-0.0001092962;-0.0003251777;-0.0005321149;-0.0007283868;-0.0009114713;-0.001080171;-0.001234895;-0.001376644;-0.001505993;-0.001625735;-0.001739132;-0.001848948;-0.001957048;-0.002067234;-0.002181238;-0.002300679;-0.002426668;-0.002559141;-0.002697598;-0.002841496;-0.002989489;-0.00313987;-0.003291204;-0.00344208;-0.003591145;-0.003737473;-0.003880459;-0.004019846;-0.004155552;-0.004288056;-0.004417969;-0.004546053;-0.004672793;-0.004799902;-0.004926761;-0.005055398;-0.005185301;-0.005317177;-0.005450381;-0.005585016;-0.005720802;-0.005856896;-0.005991401;-0.006124883;-0.00625586;-0.006383357;-0.006506778;-0.006624829;-0.006736238;-0.006839885;-0.006934712;-0.007019762;-0.007093659;-0.007117487;-0.007113473;-0.007118375;-0.007133051;-0.007155953;-0.007186465;-0.00722203;-0.007259384;-0.00729422;-0.00609701;-0.005897148;-0.005699666;-0.005506985;-0.00532169;-0.005145915;-0.004978711;-0.004819508;0.002480087;0.003197164;0.003913473;0.004620932;0.005313423;0.005985356;0.006630925;0.007247256;0.007830197;0.008377362;0.008886202;0.009355702;0.009784409;0.0101715;0.0105162;0.01081935;0.01108001;0.01129915;0.01147594;0.01160961;0.01169853;0.01174204;0.01173958;0.01169134;0.01159782;0.01146219;0.01128799;0.01108046;0.0108469;0.01059475;0.008658848;0.00855561;0.008473626;0.008409876;0.008358885;0.008315208;0.0082744;0.008230905;0.008179312;0.008116009;0.008037049;0.007940353;0.007825209;0.007692792;0.00754489;0.007385176;0.00721882;0.007050333;0.006884572;0.006726384;0.006579822;0.006448356;0.006333728;0.006238473;0.006163808;0.006109939;0.006076567;0.006063372;0.006068373;0.006090291;0.006048098;0.005980999;0.005880937;0.005744688;0.005571603;0.005361591;0.005116847;0.004840808;0.004536567;0.004208269;0.003858743;0.003491445;0.0031104;0.002718162;-0.004420408;-0.004626474;-0.004805204;-0.004955393;-0.005076284;-0.005168852;-0.00523348;-0.005271887;-0.005283836;-0.005271558;-0.005236146;-0.005179225;-0.005103062;-0.005009951;-0.004902998;-0.004783407;-0.004653398;-0.004513955;-0.004367371;-0.004213045;-0.004052485;-0.003885657;-0.003713869;-0.003537626;-0.003358201;-0.0031772;-0.002722569;-0.002546748;-0.002332049;-0.002083306;-0.00180502;-0.00150306;-0.001182784;-0.0008498837;-0.0005096335;-0.0001673473;0.0001716078;0.000503426;0.0008241852;0.00113172;0.001425;0.00170427;0.001971718;0.002230371;0.002485299;0.002742014;0.00300789;0.003287918;0.003589314;0.003917376;0.004276299;0.004668161;0.005093746;0.00554962;0.006031543;0.006529594;0.007033373;0.007527463;0.007994109;0.00316349;0.001369298;-0.0006359565;-0.002825969;-0.005166343;-0.007618566;-0.01013749;-0.01267634;-0.01518595;-0.01761538;-0.01991874;-0.02205161;-0.02397594;-0.02566143;-0.02708803;-0.02824301;-0.02912791;-0.02975291;-0.03013924;-0.03031799;-0.03032788;-0.03021357;-0.02942895;-0.02951759;-0.02975067;-0.03013498;-0.03066349;-0.03131987;-0.03207416;-0.03288753;-0.03370987;-0.03448651;-0.03515509;-0.03565275;-0.03591598;-0.03588536;-0.03550736;-0.03473675;-0.03353889;-0.03189298;-0.0297903;-0.02723541;-0.02424866;-0.02086266;-0.01712147;-0.0130806;-0.0088027;-0.004357064;0.0001834479;0.00474356;0.009248855;0.01362849;0.01781462;0.02174635;0.02537073;0.0286426;0.03152803;0.03400089;0.03604707;0.03766052;0.03884539;0.03961222;0.0399799;0.03997131;0.0396122;0.0389307;0.03795585;0.03671646;0.03523956;0.03355093;-0.01337506;-0.01300367;-0.01247621;-0.01182662;-0.01109293;-0.01333426;-0.01161375;-0.009730316;-0.007720898;-0.005624315;-0.003479075;-0.001323645;0.0008068931;0.00288088;0.004870033;0.006751238;0.008506292;0.0101189;0.01157946;0.01288172;0.01402194;0.01499999;0.01581779;0.01647865;0.01698633;0.01734515;0.01755963;0.01763349;0.0175695;0.01736976;0.01703504;0.01656573;0.01596136;0.01522194;0.01434782;-0.005452493;-0.007070264;-0.008607825;-0.01004797;-0.01137747;-0.01258146;-0.01364929;-0.01457174;-0.01534009;-0.01594942;-0.01639527;-0.01667452;-0.01678777;-0.01673578;-0.01652139;-0.01614903;-0.01562318;-0.01494981;0.008757804;0.01016928;0.0115118;0.01277625;0.01395565;0.01504328;0.01603423;0.01692537;0.01771562;0.01840453;0.0189947;0.01948924;0.01989218;0.02020824;0.02044148;0.02059616;0.02067478;0.02068148;0.02061777;0.02048644;0.02029067;0.02003349;0.01971783;0.01934898;0.01893082;0.01846725;0.01796237;0.01742036;0.01684438;0.01623733;0.01560131;0.01493958;0.01425456;0.01354961;0.01282933;0.01209933;0.0006696516;0.0009019109;0.001148591;0.001401504;0.001652821;0.001897735;0.002135346;0.002365869;0.002592869;0.00282167;0.003058258;0.003308703;0.00357856;0.003873563;0.004196783;0.00455166;0.004940087;0.005364975;0.005826613;0.006328297;0.006872848;0.007464347;0.008107985;0.008810141;0.009578974;0.01042263;0.01906777;0.0207227;0.02246478;0.02427635;0.02613972;0.02803203;0.02992897;0.03180588;0.03363656;0.03539618;0.0370613;0.03861329;0.04003576;0.04131959;0.04246028;0.04346124;0.04432956;0.04508124;0.0457368;0.04631987;0.04685766;0.0473785;0.0479116;0.04848241;0.04911403;0.04982489;0.050628;0.05152961;0.05252866;0.05361832;0.054785;0.05601004;0.05726854;0.05853117;0.05976469;0.06093331;0.06199621;0.06291244;0.06363798;0.06412947;0.06434515;0.06424487;0.06379278;0.06295961;0.06171979;0.06005733;0.01690126;0.01164433;0.006391531;0.001196678;-0.003888301;-0.008818327;-0.01355495;-0.01806472;-0.05508117;-0.05591746;-0.05660171;-0.05713148;-0.05750637;-0.05772273;-0.0577806;-0.05768334;-0.05743704;-0.05705216;-0.05654334;-0.05592695;-0.05522287;-0.05445023;-0.05362756;-0.0527708;-0.05189413;-0.01287324;-0.01345746;-0.01403865;-0.01460269;-0.01513946;-0.01563786;-0.01609111;-0.01649449;-0.01684336;-0.01713993;-0.01738373;-0.0175805;-0.01773567;-0.01785458;-0.01794498;-0.01801218;-0.01806097;-0.0180918;-0.01810564;-0.01809885;-0.01806665;-0.01800267;-0.01789916;-0.01774816;-0.01754494;-0.01728384;-0.008015768;-0.008455054;-0.0089414;-0.00946428;-0.01001398;-0.01058223;-0.01116148;-0.01174688;-0.01233364;-0.01291881;-0.01350123;-0.01408133;-0.01466174;-0.01524445;-0.01583501;-0.01643781;-0.01705962;-0.01770355;-0.01837471;-0.01907616;-0.01980735;-0.02056757;-0.02135275;-0.02215792;-0.02297506;-0.02379778;-0.02461804;-0.02542775;-0.02622331;-0.026999;-0.02775495;-0.02849072;-0.02920775;-0.02990849;-0.0305956;-0.03127099;-0.03193587;-0.03259085;-0.03323612;-0.03387005;-0.03449254;-0.03510378;-0.03570484;-0.03629631;-0.03688074;-0.03745987;-0.03803777;-0.0386166;-0.03919873;-0.03978523;-0.04037727;-0.04097437;-0.04157544;0.036198;0.0377311;0.03914925;0.04045194;0.04164142;0.04272101;0.04369342;0.04456256;0.04533216;0.04600646;0.0465891;0.04708146;0.04748525;0.04779905;0.04802194;0.04815048;0.0481815;0.04811133;0.04793703;0.04765625;0.04726706;0.04676837;0.04616051;0.04544264;0.04461558;0.04368012;0.04263974;0.0232407;0.02215815;0.02119245;0.02035325;0.01964924;0.01908726;0.01867259;0.01840604;0.01828454;0.01830251;0.01844873;0.01870962;0.01907015;0.02642815;0.02688634;0.02730232;0.02767532;0.02800819;0.02830479;0.02857094;0.02881268;0.02903668;0.02924656;0.02944769;0.0296392;0.02982405;0.03000028;0.03016819;0.03032733;0.03047843;0.03062546;0.03077194;0.03092341;0.03108459;0.03125878;0.0314506;0.03165921;0.03188447;0.03212214;0.03236862;0.03261733;0.03286191;0.03309802;0.03331881;0.03352123;0.03370309;0.03386415;0.03400492;0.03412922;0.03423893;0.03433771;0.03442801;0.03451084;0.03458652;0.03465435;0.03471351;0.03476108;0.03479665;0.03481831;0.03482507;0.0348152;0.03478789;0.03474256;0.03467701;0.03458915;0.03447852;0.034341;0.03417714;0.03398401;0.03376099;0.03350769;0.03322387;0.03291026;0.0325665;0.03219394;0.03179365;0.03136736;0.03091423;0.03043566;0.02993107;0.02940133;0.02884447;0.0282611;0.02765357;0.01143775;0.0115803;0.01167352;0.01170756;0.01167168;0.01155794;0.01136351;0.01108844;0.01073441;0.01030987;-0.004723195;-0.00499199;-0.005267265;-0.005552167;-0.005849456;-0.006161405;-0.006490237;-0.006837611;-0.007204595;-0.007592852;-0.008002811;-0.008432317;-0.008881255;-0.009345273;-0.009821136;-0.01030238;-0.01078156;-0.01125269;-0.01170692;-0.01213701;-0.01253757;-0.01290441;-0.01323673;-0.01353536;-0.0138061;-0.01405258;-0.01428284;-0.01450389;-0.01472174;-0.0149413;-0.01516534;-0.01539423;-0.01562493;-0.01585352;-0.01607314;-0.01627713;-0.01645771;-0.01660807;-0.01672112;-0.01679029;-0.0168102;-0.01677546;-0.01667986;-0.01651949;-0.01629021;-0.01598926;-0.01561815;-0.01517875;-0.0146782;-0.01412683;-0.01353852;-0.01292749;-0.01231039;-0.01170184;-0.01111647;-0.0105641;-0.01005475;-0.009592703;-0.009181424;-0.008822917;-0.008517512;-0.008264566;-0.008063758;-0.00791319;-0.007810532;-0.007752981;-0.007733389;-0.007743849;-0.007774216;-0.007812299;-0.007845297;-0.007858681;-0.007839715;-0.007778213;-0.007664684;-0.007494804;-0.007265638;-0.006976595;-0.006628999;-0.006223838;-0.005762289;-0.005244145;-0.004669216;-0.004036612;-0.003344078;-0.002592132;-0.00178039;-0.0009111415;-0.002593724;-0.002992744;-0.003355545;-0.003705095;-0.004063624;-0.00445405;-0.004896604;-0.005408377;-0.006001346;-0.006685924;-0.007467228;-0.008343711;-0.00931453;-0.01037013;-0.01150079;-0.01269306;-0.01393051;-0.01519768;-0.01647771;-0.01775617;-0.03256748;-0.03293061;-0.03317982;-0.03330241;-0.03328272;-0.03310607;-0.03275982;-0.03223366;-0.03152141;-0.03062395;-0.02955018;-0.02831547;-0.02694556;-0.02547145;-0.02393031;-0.01480172;-0.01416904;-0.01377633;-0.01363303;-0.01374154;-0.01409888;-0.01469347;-0.01550763;-0.01651533;-0.01768532;-0.01898133;-0.02035847;-0.0217726;-0.01636247;-0.01322298;-0.009708553;-0.00580671;-0.001507302;0.003199948;0.008321266;0.01385739;0.01980457;0.02614832;0.03286357;0.1197187;0.1249232;0.1294131;0.1331164;0.1359696;0.1379169;0.1389123;0.09295358;0.08299702;0.07221553;0.0606823;0.04848332;0.0357192;0.02250602;0.008970241;-0.004748436;-0.01850413;-0.03214464;-0.04551329;-0.05845768;-0.0708255;-0.08247223;-0.09326106;-0.1030689;-0.1117849;-0.1193132;-0.1255819;-0.06924305;-0.06168276;-0.05423317;-0.04693968;-0.03983856;-0.03295758;-0.02631564;-0.01992629;-0.01379534;-0.00792666;-0.002319063;0.003030725;0.04832647;0.05049082;0.0523841;0.05552363;0.05437849;0.05306334;0.05161165;0.05006185;0.04845828;0.04684754;0.04527624;0.04378816;0.04241958;0.04119777;0.0401393;0.03924485;0.03850512;0.03789375;0.03737635;0.03691053;0.03644667;0.03593505;0.03532764;0.03457642;0.03364529;0.0325;0.03111933;0.02948866;-0.02242637;-0.02378511;-0.02496132;-0.02594079;-0.02670663;-0.02724375;-0.027538;-0.02758093;-0.02736336;-0.02688364;-0.02614453;-0.02515138;-0.02391892;-0.02245994;-0.02079765;-0.003984079;-0.001982599;-0.00010686;0.001623927;0.003196137;0.004604599;0.005845069;0.0069198;0.007834618;0.008596855;0.009216808;0.009705827;-0.02522874;-0.02581336;-0.02642183;-0.02702692;-0.02760031;-0.02811037;-0.02852634;-0.02881571;-0.02894962;-0.02890123;0.005765989;0.007646102;0.00934907;0.01083324;0.01207438;0.01305926;0.01378804;0.0142717;0.01453113;0.01458902;-0.003804187;-0.003327074;-0.002810657;-0.002277084;-0.001749455;-0.001246;0.0213054;0.02201384;0.02245469;0.02742235;0.02812098;0.02860278;0.02883988;0.02881039;0.02849688
"Factor-2";-0.01521316;-0.01530884;-0.01534161;-0.01530386;-0.01518808;-0.01498863;-0.01470114;-0.01432272;-0.01385247;-0.01329097;-0.01264056;-0.01190458;-0.01108797;-0.01019644;-0.001441121;-0.0003146474;0.0007804482;0.001835638;0.002843637;0.003799516;0.004699437;0.00554054;0.006320825;0.007038762;0.00769246;0.008280717;0.00880129;0.009252889;0.009634118;0.009944586;0.01018389;0.01035254;0.0104519;0.010484;0.01045077;0.01035496;0.0101988;0.00998555;0.009717532;0.009398502;0.009032277;0.008623462;0.008177117;0.007699291;0.007196588;0.006675492;0.00614285;0.005605349;0.005068376;0.004538109;0.004018865;0.001447956;0.001837493;0.002272229;0.002749954;0.003268578;0.003825199;0.004416454;0.005038897;0.005688964;0.006362688;0.007056346;0.007765003;0.008484242;0.009209536;0.009935366;0.01065674;0.01136819;0.01206413;0.01273971;0.01338938;0.01400862;0.01915406;0.01933611;0.01953887;0.01976072;0.01999781;0.02024535;0.02049736;0.02074677;0.02098612;0.02120766;0.02140385;0.02156719;0.02169048;0.02176735;0.0217916;0.02175805;0.02166246;0.02150055;0.02126971;0.02096762;0.02059323;0.02014679;0.01962883;0.01904217;0.01838922;0.01767378;0.01690038;0.01607395;0.01520072;0.01428637;0.01333797;0.01236321;0.01136955;0.01036527;0.009358766;0.00835897;-0.004480295;-0.004307688;-0.00414688;-0.003998347;-0.003862057;-0.003737281;-0.003622832;-0.003517401;-0.003419102;-0.003326271;0.001695422;0.00196604;0.002216894;0.002443895;0.002643227;0.002811664;0.002945875;0.003044279;0.003105471;0.003129455;0.001984549;0.001767257;0.001545979;0.001322642;0.001099752;0.0008783608;0.0006585999;0.0004405012;0.0002228236;4.3308E-06;-0.0002161876;-0.0004401434;-0.0006689111;-0.0009035464;-0.007086689;-0.007292377;-0.007492457;-0.007686517;-0.007873839;-0.008053653;-0.008224989;-0.008387188;-0.008540003;-0.008683908;-0.008819205;-0.00894734;-0.009069938;-0.009188701;-0.009305449;-0.01588342;-0.01619595;-0.01649424;-0.01677468;-0.01703509;-0.01727407;-0.01749061;-0.01768552;-0.01785964;-0.018015;-0.01815304;-0.01346103;-0.0128024;-0.01210766;-0.01137853;-0.01061842;-0.00983074;-0.009020308;-0.008192945;-0.007354879;-0.006513119;-0.005675289;-0.004849067;-0.004042065;-0.003262114;-0.00251635;-0.001811639;-0.001154131;-0.0005487857;1.196674E-06;0.0004931464;0.0009270722;0.00130488;0.001630087;0.001908005;0.002146331;0.002353665;0.002540048;0.002716288;0.002893864;0.003084116;0.003297715;0.003545403;0.003836296;0.004178178;0.004577277;-0.02310043;-0.02057114;-0.01807512;-0.01560359;-0.01314449;-0.01068214;-0.008200181;-0.005680387;-0.003104274;-0.0004550514;0.002282838;0.005121653;0.008069911;0.01113167;0.01430626;0.01758734;0.02096337;0.0244174;0.02792808;0.03146985;0.0350135;0.03852819;0.04198128;0.04534152;0.04857799;0.005391889;0.00502087;0.004647242;0.004270185;0.003888446;0.003501751;0.003111627;0.002718679;0.002325987;0.001935947;0.001551263;0.001174805;0.0008098242;0.0004593437;0.0001252942;-0.0001897109;-0.0004842194;-0.0007577343;-0.001009561;-0.001239992;-0.001450523;-0.001642595;-0.001817932;-0.001979199;-0.002129462;-0.002270696;-0.002404841;-0.002534734;-0.00266152;-0.002786592;-0.002911197;-0.00303542;-0.003159821;-0.003284983;-0.003411043;-0.003538023;-0.003666605;-0.003797386;-0.003931009;-0.004068604;-0.004211338;-0.004360065;-0.004516264;-0.004681323;-0.004855874;-0.005040571;-0.005235376;-0.005440654;-0.005654172;-0.005875839;-0.00610297;-0.006333806;-0.00656551;-0.006796169;-0.007023258;-0.007244479;-0.00745768;-0.00766184;-0.007855129;-0.008036317;-0.008204333;-0.008358027;-0.0084958;-0.008616779;-0.008719598;-0.008803523;-0.008867227;-0.007957614;-0.007862629;-0.007773179;-0.007689191;-0.007609212;-0.007531544;-0.00745323;-0.00737106;-0.007281198;-0.004657438;-0.004401756;-0.004155925;-0.003922327;-0.003703041;-0.003499921;-0.003313034;-0.003142793;0.0002018188;0.000495121;0.000791632;0.001089186;0.001385945;0.001680455;0.001970581;0.002255586;0.002533548;0.002803263;0.003062757;0.003311244;0.003547463;0.003769835;0.003977569;0.004170701;0.004348304;0.004510279;0.00465643;0.004785837;0.004897604;0.004991138;0.00506585;0.005121692;0.005158292;0.005177194;0.005180093;0.005169162;0.005148175;0.005120742;0.005158896;0.005227769;0.00530771;0.005397471;0.005494514;0.005596797;0.00570303;0.005811513;0.005920863;0.006030713;0.006140334;0.006249873;0.006359962;0.006471525;0.006585887;0.006704119;0.006828052;0.006958554;0.007096146;0.00724086;0.007392074;0.007548621;0.007708233;0.007869619;0.008030212;0.008188143;0.008340868;0.008486605;0.008623241;0.00874922;0.006152684;0.00598821;0.00580759;0.005607728;0.005387074;0.0051446;0.004880463;0.004596423;0.004293834;0.003975837;0.003644638;0.003303577;0.002955978;0.002604718;-0.004385547;-0.0047076;-0.005010105;-0.005289843;-0.005543972;-0.005771467;-0.005971267;-0.006143791;-0.006288575;-0.006407145;-0.006501061;-0.006571969;-0.006622323;-0.006654308;-0.006670897;-0.006673621;-0.00666429;-0.006644098;-0.006614668;-0.006575719;-0.006528382;-0.006472486;-0.006408931;-0.006338318;-0.006261752;-0.006181086;-0.009112518;-0.009218076;-0.009302328;-0.009365863;-0.009408874;-0.009431829;-0.009434703;-0.009417716;-0.009380999;-0.009324896;-0.009250198;-0.00915733;-0.009046992;-0.008919831;-0.008775988;-0.008615872;-0.008439281;-0.008246217;-0.008036528;-0.007810197;-0.007567301;-0.007310147;-0.007039937;-0.006759881;-0.006473593;-0.006185822;-0.005900959;-0.005625202;-0.005363;-0.005120344;-0.004900972;-0.004708858;-0.004546557;-0.004887873;-0.005094263;-0.00534125;-0.005638565;-0.005997359;-0.00643065;-0.006951611;-0.007574231;-0.008310848;-0.009170938;-0.01016262;-0.01128853;-0.01254737;-0.01393284;-0.0154343;-0.0170342;-0.01871182;-0.02044106;-0.0221926;-0.02393461;-0.0256327;-0.0272522;-0.03302182;-0.03352711;-0.03377772;-0.03376899;-0.03350141;-0.03298241;-0.03222366;-0.03124177;-0.03005568;-0.02868771;-0.02716034;-0.02549707;-0.02372017;-0.02185152;-0.01991122;-0.01791733;-0.01588638;-0.01383372;-0.01177207;-0.009712262;-0.007665315;-0.005640455;-0.003645285;-0.001687346;0.0002267057;0.002090201;0.003897013;0.005639276;0.007309307;0.008899331;0.01039975;0.01180163;0.01309557;0.01427226;0.01532368;0.01624188;0.0170213;0.01765694;0.01814609;0.01848699;0.0186801;0.01872674;0.01862921;0.01839069;0.01801556;0.01750868;0.01687605;0.01612429;0.001246687;0.002108696;0.003010897;0.003928779;0.004836552;-0.01634154;-0.01664631;-0.01677567;-0.01673693;-0.01653981;-0.0161958;-0.01571832;-0.01512128;-0.01441955;-0.01362827;-0.01276271;-0.01183735;-0.01086796;-0.009867851;-0.008849464;-0.007825101;-0.00680447;-0.005796345;-0.004808778;-0.00384845;-0.002921719;-0.002033724;-0.001189733;-0.0003943493;0.000348205;0.001033753;0.001658991;0.002220889;0.002717318;0.003147573;0.003916014;0.003737462;0.003539803;0.003325616;0.003096242;0.002855081;0.002604562;0.002347715;0.002089242;0.001833293;0.001585518;0.001352483;0.001140504;0.0009569503;0.0008092776;0.0007049881;0.0006527281;0.0006600459;0.01168;0.0126851;0.01367205;0.01463026;0.01555098;0.01642521;0.01724544;0.018005;0.01869928;0.01932394;0.01987697;0.02035699;0.02076405;0.02109855;0.02136191;0.02155542;0.02168035;0.02173929;0.02173416;0.02166731;0.02154205;0.02136171;0.02112948;0.02084953;0.02052569;0.02016114;0.01975951;0.01932427;0.01885814;0.01836409;0.01784404;0.01730043;0.01673564;0.01615118;0.01554973;0.0149335;-0.02069237;-0.02150814;-0.02231488;-0.02311478;-0.02390986;-0.02469981;-0.0254825;-0.02625429;-0.02700997;-0.02774324;-0.02844806;-0.02911864;-0.02975034;-0.03033916;-0.03088426;-0.03138554;-0.03184579;-0.03226918;-0.03266354;-0.03303766;-0.0334026;-0.03377124;-0.03415803;-0.03457838;-0.0350477;-0.03558215;-0.04227328;-0.04374595;-0.04534514;-0.04706009;-0.04887286;-0.05076399;-0.05270955;-0.05468385;-0.05666162;-0.05861748;-0.06052934;-0.06237708;-0.06414653;-0.06582726;-0.0674156;-0.06891332;-0.07032908;-0.07167619;-0.07297332;-0.07424464;-0.07551719;-0.07682079;-0.07818548;-0.0796426;-0.08122142;-0.08294837;-0.08484542;-0.0869301;-0.08921392;-0.09170153;-0.09439082;-0.09727192;-0.1003292;-0.1035398;-0.1068761;-0.1103044;-0.1137883;-0.117287;-0.1207582;-0.1241576;-0.1274388;-0.1305562;-0.1334636;-0.1361158;-0.1384709;-0.1404887;-0.1347247;-0.1316668;-0.1282411;-0.1244591;-0.1203264;-0.1158432;-0.1110042;-0.105796;0.02518319;0.03632594;0.04731998;0.05805194;0.06841171;0.07829785;0.08761827;0.09629346;0.1042598;0.1114701;0.1178937;0.1235194;0.1283511;0.1324105;0.1357336;0.1383695;0.1403764;0.07969711;0.07585719;0.07202764;0.06822753;0.06447339;0.06078047;0.05716072;0.05362399;0.05017908;0.04683081;0.04358454;0.04044253;0.03740677;0.03447942;0.0316612;0.02895357;0.02635858;0.02387949;0.02151853;0.01928012;0.01716784;0.01518559;0.01333712;0.01162545;0.01005154;0.00861543;-0.002176981;-0.00218987;-0.002217414;-0.002256609;-0.002304726;-0.002360027;-0.002420695;-0.002487322;-0.002560192;-0.002640535;-0.002731591;-0.002836781;-0.002961702;-0.003110376;-0.003290116;-0.003506053;-0.003764135;-0.004068359;-0.004422257;-0.004828114;-0.005284347;-0.005790044;-0.006340805;-0.006931799;-0.007556195;-0.008208131;-0.008880517;-0.009567424;-0.01026488;-0.01096774;-0.01167556;-0.01238628;-0.01309978;-0.01381608;-0.01453567;-0.01525758;-0.01598139;-0.01670551;-0.01742859;-0.01814795;-0.01886198;-0.01956996;-0.02027162;-0.02096632;-0.02165556;-0.02234051;-0.02302298;-0.02370431;-0.02438547;-0.02506606;-0.02574574;-0.02642353;-0.02709763;-0.01189604;-0.01084691;-0.009837551;-0.008869671;-0.007942644;-0.00705388;-0.006200954;-0.005379708;-0.004586028;-0.003815131;-0.003062938;-0.002326397;-0.001603805;-0.0008951237;-0.0002004172;0.0004775083;0.001136531;0.001773089;0.002383968;0.002965929;0.003516127;0.004030984;0.004508316;0.004944675;0.005337457;0.005683866;0.005982266;0.006529939;0.006518195;0.006520708;0.006539681;0.006577208;0.00663555;0.006717756;0.006824796;0.006957425;0.007116405;0.007300101;0.007507624;0.007737435;0.0123539;0.01279254;0.01322689;0.01365223;0.014067;0.01446909;0.01485732;0.01523119;0.01559096;0.01593452;0.01626205;0.0165701;0.01685802;0.01712217;0.01736116;0.0175735;0.01775769;0.01791517;0.01804713;0.01815587;0.01824348;0.01831203;0.01836351;0.01839774;0.01841472;0.01841262;0.01838982;0.01834365;0.01827172;0.01817293;0.01804575;0.01789017;0.01770768;0.0175005;0.0172717;0.01702561;0.01676606;0.01649691;0.01622261;0.01594567;0.01566942;0.01539603;0.01512868;0.0148694;0.01462254;0.01439074;0.01417846;0.01398935;0.01382628;0.01369255;0.0135895;0.01351773;0.01347699;0.01346452;0.01347949;0.01351823;0.01357702;0.01365259;0.01374091;0.01383866;0.013941;0.01404476;0.01414547;0.01423964;0.01432142;0.01438651;0.01443017;0.01444796;0.01443463;0.01438725;0.01430406;0.01160942;0.01158873;0.01151899;0.01139684;0.01122004;0.01098837;0.01070591;0.01037728;0.0100092;0.00961051;0.0007507507;0.0002168849;-0.0003604908;-0.0009784758;-0.001632425;-0.002316644;-0.003024658;-0.003748813;-0.004480777;-0.005212938;-0.00593698;-0.006643872;-0.007326817;-0.007977632;-0.008591152;-0.00916008;-0.009680066;-0.01014753;-0.01055958;-0.01091488;-0.01121399;-0.01145896;-0.01165412;-0.01180465;-0.01191795;-0.01200033;-0.01205986;-0.01210257;-0.01213423;-0.01215874;-0.01217818;-0.01219289;-0.01220049;-0.01219837;-0.01218125;-0.01214508;-0.01208438;-0.01199526;-0.01187406;-0.01171803;-0.01152585;-0.0112969;-0.01103043;-0.01072761;-0.01038996;-0.01001872;-0.009618112;-0.00919134;-0.008743522;-0.008280691;-0.007809704;-0.007337259;-0.006870033;-0.006413511;-0.005973015;-0.005551761;-0.005153255;-0.004779308;-0.004431294;-0.004111329;-0.00382046;-0.00356029;-0.003332951;-0.00314056;-0.002984148;-0.002865908;-0.002784907;-0.002739741;-0.002727591;-0.002743582;-0.002781646;-0.002833354;-0.002890455;-0.002944566;-0.002987316;-0.003011602;-0.003012121;-0.002984113;-0.00292494;-0.002832852;-0.002706412;-0.002545372;-0.002349308;-0.002119336;-0.001855087;-0.001558787;-0.001231764;-0.000876782;-0.01899019;-0.01926441;-0.01949772;-0.01970679;-0.0199075;-0.02011476;-0.02034143;-0.02059779;-0.0208911;-0.02122721;-0.02160831;-0.02203264;-0.0224986;-0.02299955;-0.02352823;-0.02407505;-0.02462913;-0.02518027;-0.02571766;-0.02623285;-0.02853348;-0.02823303;-0.027873;-0.02745068;-0.02696041;-0.02639648;-0.02575267;-0.02502164;-0.02419779;-0.02327777;-0.02226171;-0.02115269;-0.0199582;-0.01868879;-0.01735741;-0.007693619;-0.006449355;-0.005279006;-0.004194207;-0.003205678;-0.002323868;-0.001556754;-0.0009117069;-0.0003920619;-3.812338E-07;0.0002639456;0.0004047919;0.0004272538;-0.00230774;-0.0005588279;0.001613234;0.004217727;0.007255404;0.01071757;0.01458552;0.01883005;0.02341275;0.02828418;0.03338473;0.08491907;0.08623952;0.08685882;0.08675327;0.08590794;0.08431883;0.0819933;0.02741798;0.02027612;0.01313051;0.006053713;-0.000887232;-0.007630981;-0.01412244;-0.02031669;-0.02617567;-0.03167304;-0.03679089;-0.0415187;-0.04585553;-0.04980335;-0.05336925;-0.05656077;-0.05938646;-0.06185165;-0.06395854;-0.06570789;-0.03912329;-0.03499193;-0.03078563;-0.02655066;-0.02233067;-0.01816812;-0.01410168;-0.01016516;-0.006386774;-0.00279012;0.0006084712;0.003799042;0.02835389;0.02963055;0.03082319;0.03580752;0.03520335;0.03439524;0.03339467;0.03221964;0.03089529;0.02945106;0.02792014;0.02633744;0.02473645;0.02314848;0.0215996;0.02011075;0.01869731;0.01736567;0.01611981;0.01495713;0.01387154;0.01285524;0.01189937;0.01099227;0.01012732;0.0092953;0.008491936;0.007712523;-0.0002409932;-0.0007277278;-0.001296242;-0.00194058;-0.002651769;-0.003418518;-0.004227723;-0.005066677;-0.005920356;-0.006774039;-0.007614189;-0.008425074;-0.009195126;-0.0099091;-0.01055606;-0.01246258;-0.01226362;-0.01197275;-0.01159362;-0.0111303;-0.01058504;-0.009964201;-0.00927281;-0.00851839;-0.00770876;-0.006853895;-0.005964644;-0.02160305;-0.02119053;-0.020746;-0.02026456;-0.01974128;-0.01917118;-0.01855045;-0.01787464;-0.01714207;-0.01635143;0.004668635;0.005924853;0.00713262;0.008261241;0.009287217;0.01019239;0.01096438;0.01159557;0.01208372;0.01242676;0.003375212;0.003470623;0.003583288;0.003705317;0.003825307;0.003930771;0.008324197;0.008832166;0.009327084;0.01909712;0.01912444;0.01908789;0.01897888;0.01878706;0.01850087
"Factor-3";0.001896081;0.001526612;0.001186714;0.0008884745;0.0006476885;0.0004748821;0.0003807081;0.000372556;0.0004554341;0.0006313664;0.0008989119;0.00125593;0.001696614;0.002212977;0.007313866;0.007769315;0.008120262;0.008359628;0.00848301;0.008493856;0.008399116;0.008210097;0.007939236;0.007601182;0.007210081;0.006779976;0.00632283;0.005851276;0.005377683;0.004913651;0.004470937;0.004060827;0.003695671;0.003385842;0.003140298;0.002967559;0.002870736;0.002854439;0.002914866;0.003051228;0.003257233;0.003526103;0.003847645;0.00421269;0.004610652;0.005029107;0.005455676;0.005878692;0.006282177;0.006655251;0.006982054;-0.007933766;-0.00939542;-0.01081508;-0.01217238;-0.01344688;-0.01462043;-0.01567698;-0.01660271;-0.0173854;-0.01801718;-0.01849253;-0.01881034;-0.01897253;-0.01898354;-0.01885461;-0.01859726;-0.01822844;-0.01776708;-0.01723231;-0.01664637;-0.01602965;-0.01270378;-0.01288814;-0.01304974;-0.01317906;-0.01327264;-0.0133277;-0.01334053;-0.01331152;-0.01324023;-0.0131267;-0.01296826;-0.01276437;-0.01251309;-0.01221113;-0.01185718;-0.01144821;-0.01098418;-0.01046677;-0.009897988;-0.009283403;-0.00862894;-0.007940385;-0.007225896;-0.006491402;-0.00574381;-0.00499056;-0.004237515;-0.003489712;-0.002749594;-0.00202268;-0.001310067;-0.0006116289;7.21157E-05;0.0007432647;0.001404545;0.002060272;0.004263829;0.004232017;0.004161301;0.004048712;0.003893815;0.003696755;0.003462106;0.003192927;0.002895055;0.002574603;0.001582941;0.001827729;0.002055666;0.002257861;0.002423423;0.002544211;0.002610342;0.002617347;0.002560974;0.002440838;-0.0004851941;-0.0008175508;-0.00110515;-0.001341629;-0.001518287;-0.001631208;-0.001680516;-0.001667865;-0.001598551;-0.001479665;-0.001320001;-0.001129583;-0.0009193051;-0.0006996226;-0.001374133;-0.001486609;-0.001588869;-0.001679896;-0.001758783;-0.001824304;-0.001872797;-0.001903424;-0.001914543;-0.0019069;-0.001881451;-0.001841029;-0.001789506;-0.001730731;-0.001667481;-0.0004888976;-0.0007094303;-0.0008941118;-0.001032522;-0.001120049;-0.001153858;-0.001133838;-0.001065223;-0.00095437;-0.0008102305;-0.0006415708;0.003232162;0.003681934;0.004172859;0.00470759;0.005284258;0.005901644;0.006554535;0.00723538;0.007935238;0.008642138;0.009342464;0.0100218;0.01066499;0.01125556;0.01177789;0.0122157;0.01255264;0.01277525;0.01287346;0.01283561;0.01265888;0.0123423;0.01188957;0.01130924;0.0106141;0.009821018;0.008949709;0.008022155;0.007063426;0.006097422;0.005148572;0.004243105;0.003403395;0.002653241;0.002011705;0.02191598;0.02118838;0.02034797;0.01942533;0.01845482;0.01747217;0.01651075;0.01560404;0.014784;0.01407625;0.01350571;0.01309006;0.01284109;0.01276487;0.0128613;0.01312304;0.01353683;0.01408228;0.01473529;0.01546771;0.0162449;0.01703411;0.01779684;0.01850099;0.01911109;-0.002790463;-0.002854329;-0.00292811;-0.003008769;-0.00309614;-0.00318966;-0.003283406;-0.003378375;-0.003467159;-0.003545576;-0.003611111;-0.003657188;-0.003680955;-0.003676512;-0.003645323;-0.003583014;-0.003489657;-0.003369941;-0.003224922;-0.003058417;-0.002877923;-0.002687873;-0.00249395;-0.002301428;-0.002117013;-0.001942505;-0.001779107;-0.00162965;-0.001492559;-0.001366729;-0.001251977;-0.001145642;-0.001047023;-0.0009568328;-0.0008752633;-0.0008043821;-0.0007463297;-0.0007053083;-0.0006838699;-0.0006855283;-0.000713245;-0.0007675534;-0.0008490681;-0.00095896;-0.001094981;-0.001255741;-0.001437376;-0.001638353;-0.001849639;-0.002068259;-0.002287112;-0.002500188;-0.002698786;-0.002878925;-0.003034662;-0.003163442;-0.003262595;-0.003333962;-0.003378615;-0.003399014;-0.003398731;-0.003379809;-0.003342453;-0.003287158;-0.003210454;-0.003111123;-0.00298304;0.002426375;0.002688082;0.002892462;0.003039233;0.00313234;0.003178467;0.00318759;0.003170491;0.003142619;0.004798536;0.004922434;0.004996001;0.005017616;0.004987782;0.004905891;0.004779503;0.004613671;0.003149164;0.003299729;0.003458905;0.003625131;0.003795575;0.003968596;0.004138827;0.004304323;0.00445702;0.004591461;0.004698703;0.00477256;0.004805431;0.004786787;0.004712175;0.004577376;0.004377252;0.004108546;0.003770259;0.003360118;0.002875603;0.002318633;0.001691593;0.000999592;0.0002472445;-0.0005551782;-0.001396117;-0.002265047;-0.003146395;-0.004023616;-0.009879137;-0.01019636;-0.01044928;-0.01064003;-0.01077573;-0.01086105;-0.01089863;-0.01089393;-0.01085161;-0.01077324;-0.01066297;-0.01052221;-0.01035282;-0.01015454;-0.009927462;-0.009673092;-0.009390888;-0.00908087;-0.008746536;-0.008390171;-0.00801511;-0.007625529;-0.0072285;-0.006827446;-0.006429727;-0.006038398;-0.005660639;-0.005298892;-0.004958796;-0.004642729;0.001702368;0.001998951;0.002224217;0.002368616;0.002428706;0.00240241;0.002295472;0.002117336;0.001876679;0.001587421;0.001262192;0.0009137751;0.0005564603;0.0002005284;-0.00798877;-0.008543245;-0.009027562;-0.009431046;-0.009746075;-0.009972355;-0.01010978;-0.01016703;-0.01014855;-0.01006689;-0.009934437;-0.009762322;-0.009563906;-0.009350235;-0.009131525;-0.00891461;-0.008702864;-0.008497369;-0.008300423;-0.008106345;-0.007912426;-0.007714629;-0.007508885;-0.007290965;-0.007057407;-0.006807497;-0.002798387;-0.002348799;-0.001825488;-0.001229153;-0.0005634328;0.0001667417;0.0009536706;0.001786457;0.002653266;0.003538575;0.004423239;0.00528968;0.006118931;0.00689266;0.00759616;0.008216301;0.008743582;0.009173747;0.009506942;0.009746187;0.009901573;0.009980817;0.009999672;0.009972474;0.009916366;0.009849849;0.00979316;0.009765686;0.009790186;0.00988735;0.01008319;0.01040194;0.01086903;0.03572354;0.03954039;0.04351464;0.0475827;0.05167389;0.05570732;0.05959794;0.06325513;0.06659027;0.06951999;0.07196504;0.07385896;0.07515022;0.07580085;0.07578815;0.07511205;0.07378474;0.07184021;0.06932697;0.06630645;0.06285076;0.05904123;0.03766451;0.03346366;0.02942808;0.02559329;0.02198487;0.01861121;0.01547111;0.0125518;0.009834819;0.007293049;0.004900003;0.002625864;0.0004451697;-0.001666704;-0.003730413;-0.005759952;-0.007766469;-0.009758772;-0.01173883;-0.0137036;-0.015652;-0.01757671;-0.01946787;-0.02131895;-0.0231201;-0.02486306;-0.02654052;-0.02815029;-0.02969166;-0.03116576;-0.03257981;-0.03394058;-0.03525547;-0.03653622;-0.037788;-0.03901673;-0.04022191;-0.04140124;-0.04254631;-0.04364664;-0.04468773;-0.04565284;-0.04652879;-0.04730163;-0.04796015;-0.04849792;-0.04891066;-0.04919707;-0.004904522;-0.00154791;0.001606982;0.004494553;0.007049304;-0.009046905;-0.006802823;-0.004465896;-0.002092185;0.0002631868;0.002547019;0.004709324;0.006704178;0.008490643;0.01003186;0.01129925;0.01227041;0.01292749;0.01326271;0.01327755;0.0129779;0.01238071;0.01150841;0.01039089;0.00906284;0.007560231;0.005923512;0.004194203;0.002411984;0.0006144668;-0.001163651;-0.002890998;-0.004541773;-0.006092934;-0.007528318;-0.0153744;-0.0155448;-0.01572725;-0.01592728;-0.01614843;-0.01638421;-0.01662805;-0.01686835;-0.01708674;-0.01726429;-0.0173797;-0.01740989;-0.01733539;-0.01713572;-0.01679475;-0.01630267;-0.01564817;-0.01483081;0.003311074;0.003268084;0.003075021;0.002751014;0.002322961;0.001814234;0.001251345;0.0006580518;6.167823E-05;-0.0005163423;-0.001054054;-0.001531642;-0.001932087;-0.002244336;-0.002457663;-0.002570197;-0.002583216;-0.002499561;-0.002326783;-0.00207663;-0.001758031;-0.001383327;-0.0009648463;-0.0005151838;-4.70481E-05;0.0004252697;0.000889301;0.001333051;0.001743196;0.002111019;0.002425648;0.002680922;0.002872364;0.002995424;0.00305042;0.003038347;0.007727078;0.008031965;0.00835361;0.008685928;0.009017539;0.009342573;0.009653924;0.009949896;0.0102293;0.01049299;0.0107432;0.01098069;0.01120405;0.01141507;0.01160958;0.01178438;0.01193743;0.01206829;0.01217324;0.01225466;0.01231445;0.01235569;0.01238189;0.01239629;0.01240192;0.01240181;0.0122624;0.01222671;0.01219521;0.0121711;0.01216424;0.01217989;0.01222579;0.01230617;0.01242231;0.01257306;0.01275278;0.01295665;0.01317528;0.01340068;0.01362612;0.01384537;0.01405356;0.01424956;0.01443272;0.01460232;0.01475841;0.01489902;0.01502629;0.01513821;0.01523104;0.01530439;0.01535774;0.01539069;0.01540132;0.01538863;0.01535322;0.01529363;0.01520634;0.01508676;0.01492674;0.01471795;0.01444521;0.01409392;0.01364508;0.01307847;0.01237899;0.01152862;0.01051798;0.009342765;0.008000664;0.006503263;-0.01152009;-0.01211823;-0.01232988;-0.01212004;-0.01145832;-0.0103282;-0.008720966;-0.006638134;0.05464313;0.05805386;0.06108892;0.06373055;0.06596454;0.06778922;0.06920598;0.07021936;0.07083989;0.07108118;0.07095829;0.0704925;0.0697022;0.06861241;0.06724922;0.06564089;0.06381492;-0.05249737;-0.0523705;-0.05209203;-0.05166303;-0.05109537;-0.05040053;-0.04959941;-0.04871345;-0.04776273;-0.04677244;-0.04576143;-0.04474796;-0.04374675;-0.04276722;-0.04181598;-0.04089601;-0.04000489;-0.03913293;-0.03827277;-0.0374091;-0.03652678;-0.03560946;-0.03463998;-0.03360267;-0.03248525;-0.03127985;-0.006716121;-0.007343423;-0.007936893;-0.008480567;-0.008963325;-0.009380751;-0.009729702;-0.01001413;-0.01023766;-0.01040581;-0.01052802;-0.0106129;-0.01067172;-0.01071124;-0.01074774;-0.01078858;-0.01084777;-0.01092983;-0.01104508;-0.01120012;-0.0113914;-0.01162047;-0.01188041;-0.01216209;-0.01245056;-0.01273323;-0.01299211;-0.01321152;-0.01338044;-0.01348218;-0.01351657;-0.01347779;-0.01336656;-0.01318446;-0.01293596;-0.01261995;-0.01223985;-0.01179421;-0.0112828;-0.01070175;-0.01005017;-0.009332359;-0.008556432;-0.007728548;-0.006868012;-0.005990699;-0.005118064;-0.004268654;-0.003461518;-0.00270723;-0.002015383;-0.001390844;-0.0008326808;0.01402823;0.01420303;0.01432825;0.01440541;0.0144373;0.01443459;0.01440433;0.01435881;0.01430953;0.01426623;0.01423909;0.0142314;0.01424257;0.01426629;0.01429525;0.01431361;0.01430717;0.01425964;0.01415327;0.01397274;0.0137051;0.01333659;0.0128571;0.01225569;0.01152406;0.0106571;0.009653172;-0.00948275;-0.01024446;-0.01085546;-0.01131829;-0.01163549;-0.0118117;-0.01184919;-0.01175251;-0.01153082;-0.01118761;-0.01073456;-0.01017714;-0.009521102;0.007410164;0.009183567;0.01095139;0.01269131;0.01439167;0.01603849;0.01761691;0.0191198;0.02054037;0.02186595;0.02309388;0.02421203;0.02521885;0.02610483;0.02687003;0.02751297;0.02803192;0.02843502;0.02872618;0.02891489;0.02900607;0.02900502;0.02891508;0.02873412;0.02845853;0.02808174;0.0275974;0.0269981;0.02627679;0.02543457;0.02446754;0.02338159;0.02218591;0.02089466;0.0195244;0.01810001;0.01664364;0.01518222;0.01374186;0.01234527;0.01101548;0.009769323;0.008624312;0.007590399;0.006680364;0.005899662;0.005253426;0.004741509;0.004358438;0.004095516;0.003941656;0.003875923;0.003881956;0.003933684;0.004018194;0.004115738;0.004212062;0.004298173;0.004368953;0.004422522;0.004456321;0.004473218;0.00447271;0.004455328;0.004415489;0.004347682;0.004245823;0.004100821;0.00390099;0.003641477;0.003318845;0.001143025;0.002454809;0.003735997;0.004958043;0.006089324;0.007097135;0.007961309;0.00865985;0.009173889;0.009497295;-0.01598601;-0.01628187;-0.01652556;-0.01671677;-0.01685146;-0.01692626;-0.01693979;-0.01689027;-0.01678082;-0.01661883;-0.01641421;-0.0161763;-0.01592013;-0.01565734;-0.01540427;-0.01516939;-0.01496344;-0.01479572;-0.01466984;-0.01459143;-0.01456423;-0.01459144;-0.01467873;-0.01483143;-0.01505605;-0.01535702;-0.01573986;-0.01620335;-0.01675075;-0.0173737;-0.01806555;-0.0188161;-0.01960741;-0.02042634;-0.02125513;-0.02207812;-0.02288149;-0.02365501;-0.02438903;-0.02507761;-0.02571555;-0.02630093;-0.02682394;-0.02728;-0.0276594;-0.02794674;-0.02813427;-0.02820712;-0.02815528;-0.02797431;-0.02766265;-0.02722408;-0.02666892;-0.02600735;-0.02525648;-0.02443036;-0.02354978;-0.02262929;-0.0216889;-0.02074529;-0.01981748;-0.0189211;-0.01807521;-0.01729548;-0.01659693;-0.01599486;-0.01549537;-0.01510357;-0.01481796;-0.01462829;-0.01452033;-0.0144678;-0.01444285;-0.01441421;-0.01434566;-0.01420643;-0.01396891;-0.01360788;-0.0131058;-0.01245105;-0.01163574;-0.01065916;-0.009522705;-0.008234338;-0.006803611;-0.005249335;-0.003591893;-0.001859344;-0.001407657;0.000648296;0.002861309;0.005177043;0.007544686;0.009912675;0.01223864;0.01448564;0.01662896;0.01864434;0.02052288;0.02226491;0.02387224;0.02535919;0.02674259;0.02804485;0.02929056;0.03049952;0.03169578;0.0328918;0.05224949;0.05316519;0.05402155;0.05482726;0.05560632;0.05638412;0.05719054;0.05805609;0.05900973;0.06006873;0.06123859;0.06251214;0.06386522;0.06526029;0.06665032;0.07138386;0.0708065;0.06984712;0.06850633;0.06679329;0.06471837;0.06230874;0.05958812;0.0565954;0.05337157;0.04996286;0.04642591;0.0428162;-2.060827E-05;-7.894421E-05;8.512943E-05;0.0004245226;0.0008876727;0.001407561;0.001913791;0.002328125;0.002577325;0.002583223;0.002270601;-0.03692465;-0.04220543;-0.04740513;-0.05241673;-0.05714036;-0.06148178;-0.0653493;-0.06403149;-0.05936636;-0.05399025;-0.04798273;-0.04144517;-0.03449293;-0.02725586;-0.0198804;-0.01252503;-0.005363342;0.001424385;0.007655489;0.01314472;0.01771669;0.02120714;0.02347144;0.02438973;0.02386893;0.02185397;0.01831689;-0.1567214;-0.1620581;-0.1655895;-0.167245;-0.1669958;-0.164861;-0.1609073;-0.1552478;-0.14803;-0.1394463;-0.1297064;-0.1190442;0.007395354;0.01431019;0.02058756;0.06077706;0.0625084;0.06398001;0.06522325;0.0662831;0.06721669;0.06808703;0.0689576;0.06989085;0.07093269;0.07211501;0.07344066;0.07489146;0.07641758;0.07794017;0.07936756;0.08058601;0.08147126;0.08190281;0.08176186;0.08093079;0.07931953;0.07684145;0.07343896;0.06906991;-0.07897919;-0.07689424;-0.07341783;-0.06862119;-0.06260686;-0.05551179;-0.04750253;-0.03877707;-0.02954892;-0.02004532;-0.01050494;-0.001151555;0.007788972;0.01612749;0.02368893;0.04750236;0.04624486;0.04438082;0.04204804;0.0393857;0.03652929;0.03359459;0.03068832;0.02789115;0.02526874;0.02286023;0.02068998;-0.01717979;-0.018999;-0.02063644;-0.02205899;-0.02324195;-0.02416072;-0.02480142;-0.02515016;-0.02521032;-0.02498796;-0.004495158;-0.003216668;-0.002265031;-0.001683616;-0.00148044;-0.001644472;-0.002143415;-0.00292765;-0.003936104;-0.005115499;0.01465339;0.01635091;0.01774287;0.01881643;0.01955615;0.01995014;-0.006021776;-0.006772532;-0.007507153;0.01848887;0.01777046;0.01682507;0.01572642;0.01453946;0.01331619
"Factor-4";0.003402327;0.003918574;0.004459269;0.005026644;0.005631663;0.006274444;0.006958955;0.007684269;0.008448185;0.009247016;0.01007533;0.01092884;0.01179963;0.01268138;0.01861997;0.01893456;0.01909544;0.01910113;0.01895498;0.01866924;0.01825885;0.01774545;0.01714668;0.01648171;0.01576704;0.01501648;0.01423882;0.01344363;0.01264007;0.01183542;0.01103904;0.01025892;0.00950629;0.008789061;0.008113838;0.007487964;0.006910275;0.006383883;0.005899699;0.005454969;0.005040229;0.004647245;0.004263612;0.003882136;0.003493966;0.00308994;0.002661539;0.002202973;0.00170167;0.001153072;0.0005430874;-0.02994096;-0.0312551;-0.03239179;-0.03332939;-0.03405008;-0.03453882;-0.03478668;-0.03478836;-0.03454162;-0.03404998;-0.03332135;-0.03236893;-0.0312087;-0.02985898;-0.02834594;-0.02669661;-0.02494106;-0.02311292;-0.02124445;-0.01936996;-0.01751936;-0.003426736;-0.003351532;-0.003256867;-0.003141195;-0.003010427;-0.002875366;-0.002741762;-0.00262136;-0.002524477;-0.002458433;-0.002426295;-0.002429484;-0.002468694;-0.002538521;-0.002634458;-0.0027481;-0.002875302;-0.003010824;-0.003150732;-0.003294872;-0.003444658;-0.003598846;-0.003763131;-0.003938882;-0.004129385;-0.004340201;-0.004574379;-0.00483333;-0.005113333;-0.005417272;-0.005738246;-0.006069422;-0.006403765;-0.006730277;-0.00703834;-0.007315304;0.009709113;0.009920945;0.01006076;0.01012439;0.010113;0.01002713;0.009873461;0.009654411;0.009376002;0.009042571;-0.001736764;-0.001944018;-0.002155633;-0.002383665;-0.002641078;-0.002936144;-0.003280557;-0.003676286;-0.004125636;-0.00462291;-0.009082151;-0.009273813;-0.009350372;-0.009309939;-0.009145958;-0.008857713;-0.008451829;-0.007934275;-0.007316834;-0.006612594;-0.005836288;-0.005004172;-0.004134502;-0.003243617;0.004558784;0.004484446;0.004441895;0.00443533;0.004468037;0.004541746;0.004659544;0.004819072;0.005018681;0.005251747;0.00551134;0.005786489;0.006066357;0.006339846;0.00659809;0.01241902;0.01237473;0.0124116;0.01255007;0.01280154;0.01317542;0.01367487;0.01429506;0.01502766;0.01586008;0.01677731;0.04344126;0.04345742;0.04331883;0.04302832;0.04258898;0.04200595;0.04128619;0.04043397;0.03945852;0.03836712;0.03716769;0.03587024;0.03448536;0.03302254;0.03149229;0.02990323;0.02826141;0.02657505;0.02485232;0.0230941;0.0213106;0.01950792;0.01769387;0.01587798;0.01407037;0.01228264;0.01052438;0.00880586;0.007136028;0.005518636;0.003954711;0.002443904;0.0009801821;-0.0004426298;-0.001837567;0.07019569;0.0692177;0.0680154;0.06659986;0.06498578;0.06319005;0.06122422;0.05910468;0.05684686;0.05446251;0.05196789;0.04937747;0.0467001;0.04394919;0.04113315;0.0382592;0.03533294;0.03235726;0.02933449;0.02626731;0.0231509;0.01998667;0.01676665;0.01349388;0.0101617;-0.01524405;-0.01556001;-0.01590836;-0.01628529;-0.01669527;-0.01714147;-0.01761737;-0.01812794;-0.01866252;-0.01921662;-0.01978331;-0.02035302;-0.02091385;-0.0214522;-0.0219617;-0.02242776;-0.02284106;-0.02319928;-0.0234945;-0.02372542;-0.02389576;-0.02400737;-0.0240648;-0.02407341;-0.02404239;-0.02397261;-0.02386598;-0.02372986;-0.02356303;-0.0233645;-0.02313823;-0.02288361;-0.02260184;-0.02229629;-0.02196722;-0.02161974;-0.02125364;-0.02087371;-0.020478;-0.02006848;-0.01964307;-0.0192002;-0.01873396;-0.01824634;-0.01772888;-0.01718214;-0.01659826;-0.0159799;-0.01531463;-0.01460637;-0.01385104;-0.0130502;-0.01220162;-0.01131195;-0.0103868;-0.009434344;-0.008464223;-0.007490223;-0.006520745;-0.005566405;-0.004635722;-0.003732129;-0.002854524;-0.001999913;-0.001159646;-0.0003252026;0.0005151975;0.01542336;0.01593096;0.01626494;0.01641688;0.01639032;0.01619514;0.01585171;0.01538363;0.01482462;0.01015634;0.01008437;0.009980169;0.009832666;0.009633509;0.009371608;0.009047603;0.008661886;0.007680165;0.008312157;0.008953187;0.009594905;0.01022649;0.0108417;0.01143039;0.01198848;0.01250408;0.01297091;0.01337823;0.01371916;0.01398795;0.01417186;0.01426909;0.01427716;0.01419138;0.01400784;0.01372467;0.01333655;0.01283521;0.01222088;0.01149088;0.01064822;0.00969299;0.008637118;0.007492997;0.00627105;0.004992276;0.003676194;-0.007584583;-0.008647511;-0.009677103;-0.01067357;-0.01164522;-0.01259492;-0.01352206;-0.0144324;-0.01532926;-0.01621138;-0.01708497;-0.0179469;-0.01880035;-0.01963929;-0.02045933;-0.02125812;-0.022025;-0.02275428;-0.02343857;-0.024073;-0.02465082;-0.02516907;-0.02562824;-0.02602338;-0.02635632;-0.0266232;-0.02682571;-0.02696197;-0.02703393;-0.02704122;-0.002742541;-0.001554893;-0.0005028522;0.0003987596;0.001141548;0.001725053;0.002156275;0.00245015;0.002620397;0.002689912;0.002678223;0.002606438;0.002500637;0.0023793;-0.001912004;-0.002513773;-0.003019497;-0.003415822;-0.003690036;-0.003844353;-0.003879862;-0.003811513;-0.003644855;-0.003400159;-0.003095581;-0.002745691;-0.002369438;-0.00198149;-0.001594576;-0.001216149;-0.0008511723;-0.0004971751;-0.0001576119;0.0001775853;0.000514025;0.0008589476;0.001218118;0.00160194;0.002013845;0.002458302;0.01783002;0.01929637;0.02088953;0.02259879;0.02441498;0.02632275;0.02830367;0.03033529;0.03239393;0.03444917;0.0364668;0.03841607;0.04026172;0.04196978;0.04351443;0.04487006;0.04601837;0.04694732;0.04765377;0.04813781;0.04841021;0.04847646;0.04835593;0.04806168;0.04761244;0.04702565;0.0463204;0.04551292;0.04462434;0.04367097;0.04267684;0.0416643;0.04065929;0.03852895;0.03958302;0.0407492;0.0419625;0.04315086;0.04422588;0.04509744;0.04566686;0.04583656;0.04551997;0.0446312;0.04310416;0.04089015;0.03795756;0.03429448;0.02992014;0.02486904;0.01920813;0.01302039;0.006408949;-0.0005093128;-0.007607226;-0.04127861;-0.04688381;-0.05193496;-0.0563999;-0.0602634;-0.06353749;-0.06625364;-0.06845736;-0.07020608;-0.07157;-0.0726181;-0.07342477;-0.07405604;-0.07457466;-0.07503311;-0.07546842;-0.07590688;-0.07636462;-0.07683494;-0.07729561;-0.077719;-0.07805961;-0.07825844;-0.07825756;-0.07799382;-0.07740112;-0.0764237;-0.07501508;-0.07314089;-0.07077911;-0.06792471;-0.06458835;-0.06078847;-0.05656428;-0.05195508;-0.04701102;-0.04178253;-0.03632385;-0.03068696;-0.02492388;-0.01908263;-0.01320798;-0.007349403;-0.001548434;0.00415254;0.009710995;0.01508507;0.02023522;0.006470515;0.00273022;-0.0007488748;-0.003926103;-0.006775944;-0.03276557;-0.0344177;-0.03590785;-0.03721081;-0.03830811;-0.03918659;-0.03984033;-0.04026738;-0.04047228;-0.04046339;-0.04025307;-0.0398535;-0.03928185;-0.03855296;-0.03767479;-0.03666011;-0.03551107;-0.03423363;-0.03282584;-0.03128709;-0.02962042;-0.02782552;-0.025903;-0.02386189;-0.02170931;-0.01945988;-0.01712685;-0.01473037;-0.01228761;-0.009820314;0.01782094;0.01914088;0.020266;0.02117875;0.02185858;0.02229181;0.02246137;0.02235264;0.02195965;0.02128236;0.02032552;0.01910704;0.01764897;0.0159862;0.01416211;0.01221722;0.01021168;0.008195229;0.0003927879;0.001254071;0.002109587;0.002934965;0.003720198;0.004451075;0.005121255;0.005722159;0.006255694;0.00671966;0.007116381;0.007450258;0.007728061;0.007950923;0.008128471;0.008263445;0.008357811;0.008417975;0.008447415;0.008445934;0.008420155;0.008373687;0.008307391;0.008223151;0.00812263;0.008004798;0.007868993;0.007719745;0.0075571;0.007389721;0.007218286;0.00705291;0.006900521;0.00676196;0.006644661;0.00655203;0.009710592;0.01007007;0.01045447;0.01085804;0.01126164;0.01165492;0.01202237;0.01235431;0.01264515;0.01289057;0.01309192;0.0132487;0.0133572;0.01342418;0.01344381;0.01341595;0.01334153;0.01322351;0.0130614;0.01286322;0.01263615;0.01239088;0.01213797;0.01189079;0.01165945;0.01145588;0.01111027;0.01120447;0.01133976;0.01152403;0.01177561;0.01211009;0.01254609;0.01309744;0.01377109;0.01456714;0.01547741;0.0164891;0.01757905;0.01872342;0.01989675;0.02107228;0.02222436;0.02333332;0.02438073;0.02534933;0.02622573;0.02699471;0.02765061;0.0281848;0.02858729;0.02885787;0.02899765;0.02901226;0.02890596;0.02869015;0.02837714;0.02798294;0.02751638;0.0269871;0.02640121;0.02575994;0.02505474;0.02427439;0.02339999;0.02240825;0.02128167;0.01999494;0.01853381;0.01688647;0.01504444;0.01301391;-0.0135776;-0.01505082;-0.01610636;-0.01670869;-0.01682412;-0.01644432;-0.01556897;-0.01421324;0.02886202;0.03067939;0.03219825;0.03343762;0.03441209;0.03514393;0.03565289;0.03594891;0.03604482;0.03594797;0.03566433;0.03520143;0.03456721;0.03377302;0.03283696;0.03177866;0.03062282;-0.008512692;-0.01112733;-0.01361147;-0.0159477;-0.01813867;-0.02018408;-0.0220968;-0.02389308;-0.02558238;-0.02718999;-0.02872799;-0.03021062;-0.03164893;-0.03304042;-0.03438033;-0.03565773;-0.0368523;-0.03793142;-0.0388705;-0.03963488;-0.04019487;-0.0405254;-0.04060738;-0.04042577;-0.03997777;-0.0392694;-0.01622637;-0.01717984;-0.01804844;-0.01880299;-0.01942376;-0.01990027;-0.02022178;-0.02039361;-0.02041819;-0.02030453;-0.02006431;-0.01971506;-0.01927609;-0.01876169;-0.01820175;-0.01761417;-0.01702733;-0.01645369;-0.01592205;-0.01544926;-0.01504239;-0.01471476;-0.01446526;-0.01429431;-0.01418633;-0.0141321;-0.01411016;-0.01410406;-0.01410087;-0.0140781;-0.0140384;-0.01397374;-0.01388458;-0.0137703;-0.0136332;-0.0134643;-0.01325896;-0.01300349;-0.01268503;-0.01228456;-0.01178522;-0.01117704;-0.01045788;-0.009618615;-0.00867244;-0.007627709;-0.006502906;-0.005315694;-0.00408774;-0.002833149;-0.001567586;-0.00031008;0.0009313753;0.02150589;0.0216801;0.0217877;0.02183202;0.02181826;0.0217621;0.02167319;0.02156882;0.02145993;0.0213574;0.02126525;0.02118258;0.02109567;0.02098836;0.02084268;0.02063026;0.02032793;0.01991733;0.01937555;0.01869077;0.01785324;0.01685289;0.01568373;0.01433584;0.01279909;0.01106764;0.009136635;-0.02637356;-0.02792436;-0.02919391;-0.03017702;-0.03086841;-0.03126755;-0.03137441;-0.03119468;-0.03074487;-0.03004229;-0.02911634;-0.02799693;-0.02671675;-0.007936435;-0.006863087;-0.005863927;-0.004937725;-0.004064523;-0.003227466;-0.002414549;-0.001600546;-0.0007710669;8.124528E-05;0.0009710835;0.00189409;0.002859434;0.003858061;0.004891702;0.005956831;0.007046454;0.008163519;0.009299443;0.01045282;0.01161072;0.0127581;0.01387752;0.01494114;0.01592677;0.01680219;0.01754623;0.01813354;0.01855017;0.01879126;0.01885164;0.01873977;0.01847281;0.01807504;0.01757338;0.0170092;0.01641348;0.01582488;0.0152831;0.01480816;0.0144296;0.01415892;0.01400739;0.01397005;0.01404725;0.01422265;0.01448028;0.01479495;0.01513664;0.01547152;0.01577058;0.0159918;0.01611251;0.0160982;0.01594218;0.01563393;0.01517177;0.01456925;0.01384014;0.01301049;0.0120999;0.01113553;0.01013324;0.009113457;0.008077932;0.007028911;0.005961332;0.004865657;0.003724786;0.002531589;0.001279306;-0.004299401;-0.003770183;-0.003410445;-0.003239772;-0.003280923;-0.003549425;-0.004034224;-0.004723528;-0.005596166;-0.006610675;-0.002662173;-0.003457082;-0.004545311;-0.00590878;-0.007513587;-0.009322986;-0.01129688;-0.01339314;-0.0155727;-0.01780132;-0.02005251;-0.0222942;-0.02450337;-0.02665512;-0.0287291;-0.03069391;-0.03252394;-0.03419327;-0.03567218;-0.03693902;-0.0379779;-0.03878136;-0.03935775;-0.03972128;-0.03990134;-0.0399305;-0.0398487;-0.03969129;-0.0394998;-0.03929925;-0.03911487;-0.03896304;-0.03884156;-0.03875668;-0.03869808;-0.0386558;-0.03862062;-0.03858401;-0.03853544;-0.03846508;-0.03836399;-0.03822587;-0.03802766;-0.03775399;-0.03738188;-0.03687517;-0.03621722;-0.03537518;-0.03433321;-0.03308264;-0.0316259;-0.02997793;-0.02816702;-0.02622401;-0.02419463;-0.02211991;-0.02005051;-0.01802634;-0.01609199;-0.01428484;-0.01263767;-0.01117817;-0.009935104;-0.0089272;-0.008173132;-0.007690378;-0.007480395;-0.007544994;-0.007875309;-0.008448236;-0.009235013;-0.0101876;-0.01125131;-0.01237082;-0.01347725;-0.0145101;-0.01541148;-0.0161241;-0.01660411;-0.01681221;-0.01671896;-0.01630458;-0.01555544;-0.01446907;-0.01305187;-0.01132747;-0.009324474;-0.007089786;0.03998642;0.04294751;0.04592025;0.04880887;0.05151985;0.05396059;0.05605306;0.05772895;0.05894469;0.05966008;0.05986443;0.05956216;0.05877018;0.05752225;0.0558655;0.05385179;0.05153964;0.04898201;0.04623693;0.04334352;-0.01461156;-0.01898862;-0.02331491;-0.02752028;-0.0315068;-0.03518166;-0.03845149;-0.04122917;-0.04344184;-0.04503987;-0.04600586;-0.04634605;-0.04610213;-0.04534;-0.04414885;-0.03330848;-0.03251795;-0.03205459;-0.03190516;-0.03203041;-0.0323855;-0.03289346;-0.03348283;-0.03406958;-0.03457442;-0.03492807;-0.03505858;-0.03492413;-0.02602904;-0.02721696;-0.02824436;-0.02902957;-0.02948812;-0.02955927;-0.02919463;-0.02836943;-0.0270657;-0.02529448;-0.02308381;0.01594777;0.0182434;0.02012742;0.02155212;0.02246693;0.0228185;0.02257235;-0.01130069;-0.01655908;-0.02176824;-0.02680334;-0.03155217;-0.03591029;-0.03978426;-0.04310699;-0.04582507;-0.04791972;-0.04938096;-0.05021516;-0.05044558;-0.05008898;-0.04916652;-0.04769172;-0.04566742;-0.04309637;-0.03995891;-0.03624632;0.07140221;0.07358126;0.07448764;0.07407662;0.07235754;0.06936087;0.06515836;0.05983453;0.0535141;0.04632406;0.03841617;0.02994662;-0.05318301;-0.05444007;-0.05457335;-0.0161902;-0.01357647;-0.0117926;-0.01087897;-0.01082532;-0.01156543;-0.01298149;-0.01492753;-0.01722701;-0.01969912;-0.0221708;-0.02449379;-0.02654263;-0.02823462;-0.02953028;-0.03040652;-0.03087254;-0.03095769;-0.03068788;-0.03008751;-0.02918856;-0.02798907;-0.02649965;-0.02470728;-0.02259931;0.10134;0.1031923;0.1034796;0.102165;0.09925851;0.09479978;0.08886188;0.08154347;0.07297347;0.06331265;0.0527283;0.041437;0.02963951;0.01758526;0.005504092;-0.06621162;-0.06968914;-0.07166351;-0.07214069;-0.07115592;-0.06877986;-0.06513429;-0.06036038;-0.05465226;-0.04821401;-0.04127916;-0.03407623;-0.01463045;-0.01586481;-0.01698424;-0.01790997;-0.01858036;-0.01894078;-0.01896141;-0.01862427;-0.01793889;-0.01692882;0.02999828;0.03313055;0.03555448;0.0371348;0.03780686;0.03755026;0.03640275;0.03444742;0.03179839;0.02857996;0.0146741;0.01418633;0.01303981;0.01128382;0.008973958;0.006188265;-0.009157076;-0.007331952;-0.005870765;0.009174142;0.01039212;0.01128714;0.01183071;0.01198531;0.01170971
"Factor-5";-0.01038186;-0.01124381;-0.01211561;-0.01297959;-0.01381318;-0.01459819;-0.01531498;-0.01594659;-0.0164775;-0.01689352;-0.01718296;-0.01733507;-0.01734262;-0.01719978;-0.01101614;-0.009796351;-0.008534076;-0.007244078;-0.005940074;-0.004632794;-0.003331916;-0.002045217;-0.0007820097;0.0004501424;0.001642143;0.002785756;0.003870594;0.004888931;0.005832392;0.006694655;0.007470202;0.008154462;0.00874496;0.009239442;0.009636226;0.009935878;0.01013715;0.01024313;0.01025461;0.01017692;0.01001545;0.009779364;0.009477396;0.00912265;0.008729735;0.008313877;0.007891816;0.007480508;0.007095411;0.006753781;0.006467985;0.01237316;0.01214715;0.01184674;0.01148349;0.01107201;0.0106259;0.01016029;0.009688752;0.009225518;0.00878275;0.00837202;0.008001611;0.007679813;0.007412769;0.007202909;0.007052662;0.006960833;0.006925726;0.006944323;0.007012105;0.007125229;0.01776042;0.01880421;0.0198705;0.02094747;0.02202041;0.0230736;0.02409275;0.02506199;0.02596636;0.0267935;0.02753405;0.02817933;0.02872311;0.02916181;0.02949286;0.02971653;0.0298308;0.02983542;0.02972936;0.02951019;0.02917456;0.02872112;0.02814517;0.02744521;0.02661965;0.02566648;0.02458742;0.02338573;0.02206964;0.02064601;0.01912807;0.01753047;0.01586966;0.01416442;0.01243376;0.01069802;-0.005141118;-0.004789621;-0.004465518;-0.004171712;-0.003907937;-0.003673657;-0.003465042;-0.00327896;-0.003110346;-0.002954697;0.003000372;0.003329869;0.003634645;0.003906065;0.004135493;0.004315617;0.004438741;0.004501421;0.004500321;0.004436084;0.001977318;0.001660813;0.001371266;0.001111814;0.0008877254;0.0007015113;0.0005511859;0.0004338351;0.000344268;0.0002753328;0.0002200712;0.0001694095;0.0001156995;5.161977E-05;-0.004929784;-0.005091895;-0.005234957;-0.005359387;-0.00546612;-0.005555787;-0.005628922;-0.005686932;-0.005731478;-0.005765355;-0.005792005;-0.005815923;-0.005841978;-0.005874772;-0.005918232;-0.01095052;-0.01142883;-0.01187752;-0.01228581;-0.01264824;-0.01296086;-0.01322241;-0.01343642;-0.01360753;-0.01374293;-0.01385076;-0.01962929;-0.01934709;-0.01895263;-0.01843577;-0.01778837;-0.0170055;-0.01608402;-0.01502583;-0.01383455;-0.01251765;-0.01108682;-0.009556622;-0.007943086;-0.006267165;-0.004550923;-0.002819074;-0.001098435;0.0005847242;0.002205182;0.003736412;0.005157696;0.006450093;0.007598187;0.008592135;0.009426279;0.01009997;0.01061597;0.01098235;0.01120999;0.01131175;0.01130256;0.01120082;0.01102385;0.01079177;0.01052264;-0.0519936;-0.0524244;-0.05290115;-0.05339042;-0.05385057;-0.05423385;-0.05449095;-0.05456906;-0.05441584;-0.05398311;-0.05322506;-0.05210404;-0.05059201;-0.04866869;-0.04632612;-0.04356763;-0.040408;-0.03687368;-0.03300053;-0.0288329;-0.02442497;-0.01983438;-0.01512434;-0.01035622;-0.005594537;0.001755017;0.001238613;0.0007172297;0.0001943202;-0.0003305559;-0.0008585891;-0.001385546;-0.001915391;-0.002442213;-0.002964298;-0.003478984;-0.003981496;-0.004466129;-0.004925581;-0.00535638;-0.005751763;-0.006105188;-0.006415757;-0.006679841;-0.006896626;-0.007069679;-0.007201521;-0.007295571;-0.007357239;-0.007392669;-0.007404515;-0.007395347;-0.007369919;-0.00733002;-0.007275936;-0.00721301;-0.007142132;-0.007067733;-0.006995936;-0.006930242;-0.006877062;-0.006839723;-0.006823964;-0.006830354;-0.006861747;-0.006917337;-0.006996918;-0.007097129;-0.007218294;-0.007355676;-0.007508994;-0.007672864;-0.007847838;-0.008025945;-0.008206616;-0.008385177;-0.008559282;-0.008724181;-0.008879774;-0.009023828;-0.009157889;-0.009282405;-0.009401232;-0.009515475;-0.009628027;-0.009740639;-0.009852959;-0.009962325;-0.01006504;-0.01015514;-0.0102266;-0.0102716;-0.007225445;-0.007091607;-0.007009383;-0.006979787;-0.006997114;-0.007053619;-0.007137346;-0.007235308;-0.007330835;-0.004627544;-0.004235967;-0.00387164;-0.003539668;-0.003244079;-0.00299062;-0.00277648;-0.002599844;0.003405501;0.003980982;0.0045424;0.005085507;0.00560486;0.006098291;0.006564321;0.007003984;0.007415297;0.007799662;0.008157575;0.008489946;0.008798732;0.009081123;0.009340587;0.009578196;0.009793487;0.009985903;0.01015503;0.01029671;0.01040602;0.01048046;0.01051505;0.01050774;0.01045314;0.01035326;0.01020879;0.01002049;0.009795095;0.009538702;0.006881591;0.006615164;0.006352868;0.006096721;0.005844235;0.005596671;0.005358001;0.005129439;0.004912323;0.004711857;0.004526997;0.004360839;0.00421042;0.004078078;0.003961565;0.003858402;0.003768916;0.003691276;0.003624598;0.003567202;0.003518832;0.003477072;0.003439093;0.003404489;0.003368963;0.003332205;0.003290416;0.003243327;0.003189433;0.003129775;0.006258803;0.006428391;0.006558715;0.006647105;0.006693024;0.006698526;0.006668007;0.006606726;0.006518716;0.006411375;0.006288322;0.00615495;0.006018378;0.005881805;0.0004864091;-0.0001450533;-0.0007388357;-0.001284014;-0.001771517;-0.002197653;-0.00255998;-0.002862054;-0.003103836;-0.003292569;-0.003434421;-0.00353315;-0.003596405;-0.003629179;-0.003637533;-0.003624973;-0.003595036;-0.003550007;-0.003494771;-0.003429199;-0.003355404;-0.003274794;-0.003187986;-0.00309422;-0.002993398;-0.002885141;-0.006131705;-0.006158469;-0.006166185;-0.006163246;-0.006156348;-0.00615483;-0.006166676;-0.006201819;-0.006267945;-0.006376774;-0.006539846;-0.006767955;-0.007074034;-0.007473036;-0.007976631;-0.008599225;-0.009352436;-0.01024779;-0.01129344;-0.01249524;-0.01385466;-0.01537454;-0.01704784;-0.01886997;-0.0208295;-0.02291212;-0.02509931;-0.02737042;-0.0296967;-0.03204519;-0.03437638;-0.03664321;-0.03879266;-0.03344779;-0.02918676;-0.02438599;-0.01913001;-0.01352243;-0.007689487;-0.001770943;0.004080925;0.009706588;0.01494901;0.01965229;0.02367589;0.02689869;0.02922096;0.03057184;0.03091745;0.03025428;0.02862025;0.0260863;0.02275637;0.01876479;0.01426895;-0.009351615;-0.01304027;-0.01602713;-0.01821025;-0.01951976;-0.01992275;-0.01942335;-0.01806146;-0.01590953;-0.01307292;-0.009678916;-0.00587587;-0.00182285;0.002314701;0.006373195;0.01019952;0.01365313;0.01661043;0.01897253;0.02066942;0.02165185;0.02190079;0.02142729;0.02026305;0.01846457;0.01610969;0.01328964;0.01010661;0.006669597;0.003090845;-0.0005211821;-0.004062515;-0.007436533;-0.0105621;-0.01336629;-0.0157936;-0.01780084;-0.01936085;-0.02045958;-0.02109678;-0.02128339;-0.02103979;-0.02039828;-0.01939557;-0.01807549;-0.01648664;-0.01468062;-0.0127096;0.008786627;0.009391134;0.01025133;0.01138709;0.01280579;-0.001510308;-0.006304912;-0.01096714;-0.01545522;-0.01973436;-0.02377401;-0.02754949;-0.03104128;-0.03423323;-0.03711367;-0.03967468;-0.0419088;-0.04381319;-0.04538347;-0.04661633;-0.04750966;-0.04805962;-0.04826487;-0.04812365;-0.04763588;-0.04680558;-0.04563672;-0.0441347;-0.0423108;-0.04017503;-0.03774215;-0.03502594;-0.03204446;-0.0288153;-0.02535881;0.02810301;0.03158033;0.03473568;0.03752413;0.03990397;0.0418419;0.04330985;0.04428812;0.04476776;0.04475039;0.04424689;0.04328124;0.04188503;0.04010114;0.03798094;0.03557838;0.03295771;0.03018088;0.0008900262;0.0008021186;0.0007967395;0.000849123;0.0009398359;0.001049452;0.001161406;0.001259756;0.001335003;0.001378031;0.001382873;0.001346347;0.001267941;0.001146803;0.0009865962;0.0007908091;0.000562502;0.0003085507;3.438774E-05;-0.0002544477;-0.00055083;-0.0008483789;-0.001142292;-0.001429111;-0.001705538;-0.001970371;-0.002221702;-0.002456988;-0.002674433;-0.002868079;-0.00303617;-0.00317108;-0.00326632;-0.003318733;-0.003321634;-0.003271181;-0.004419018;-0.00451957;-0.004591371;-0.004639903;-0.004677146;-0.004708816;-0.004743265;-0.004784073;-0.004833382;-0.004890644;-0.004954324;-0.005021117;-0.00509097;-0.005157156;-0.005218744;-0.005271414;-0.005309871;-0.005327604;-0.005319992;-0.005278201;-0.005195602;-0.005063095;-0.004875919;-0.00462661;-0.004312172;-0.003929852;0.0004819616;0.001295038;0.002138564;0.003009026;0.003907794;0.004834916;0.005791533;0.006778062;0.00779015;0.008821532;0.009862235;0.01090075;0.01192173;0.01290933;0.01384848;0.0147221;0.01551511;0.01621373;0.01680538;0.01727704;0.01761825;0.01781807;0.01787134;0.01777286;0.01751975;0.01711557;0.01656719;0.01588554;0.01508213;0.01417268;0.0131723;0.01209667;0.01095773;0.009762509;0.008515828;0.007215513;0.005853053;0.004417122;0.002889524;0.001251432;-0.0005130635;-0.002422345;-0.004487857;-0.006716474;-0.009111829;-0.01166779;-0.04435995;-0.04681081;-0.04898458;-0.0508505;-0.05237822;-0.05355322;-0.05436292;-0.05480733;-0.0302313;-0.02777831;-0.02537104;-0.02301927;-0.02073309;-0.01851809;-0.01637973;-0.01432643;-0.01236205;-0.01049392;-0.008729473;-0.007070648;-0.005520693;-0.004079422;-0.002742933;-0.001504471;-0.0003562938;0.03087473;0.02956693;0.02823587;0.0268845;0.02550741;0.02410538;0.02267433;0.02121305;0.01972452;0.0182054;0.01665964;0.01508819;0.01349395;0.01188488;0.01026744;0.008652229;0.007052986;0.005491443;0.003983859;0.002552049;0.001216281;-5.831438E-06;-0.001101739;-0.002060543;-0.002880414;-0.003563962;-0.01050228;-0.01062166;-0.01072526;-0.01080412;-0.01085275;-0.01086551;-0.01083681;-0.01076501;-0.01064516;-0.01047579;-0.01025592;-0.009986357;-0.009673304;-0.009319241;-0.008938321;-0.008540196;-0.008143114;-0.007758948;-0.007410771;-0.007116303;-0.006890371;-0.00675107;-0.006708824;-0.006774142;-0.006948673;-0.007233685;-0.007621621;-0.008107042;-0.008680706;-0.009330436;-0.01005066;-0.010834;-0.01167352;-0.01256408;-0.01350004;-0.0144713;-0.01546823;-0.01647769;-0.01748644;-0.01847657;-0.01943154;-0.02033912;-0.02119032;-0.02197421;-0.02269093;-0.02333946;-0.02392574;-0.0244561;-0.02493995;-0.0253845;-0.0257983;-0.02619223;-0.0265732;0.007968937;0.009423123;0.01080423;0.0121082;0.0133339;0.01448432;0.0155627;0.01657501;0.01752609;0.01842361;0.01927107;0.02007107;0.02081949;0.02151262;0.02214482;0.02270645;0.02318928;0.02358775;0.02389412;0.02410704;0.02422402;0.02424607;0.02417364;0.02400747;0.0237473;0.02339435;0.02295018;0.01030935;0.00943937;0.00865496;0.007970248;0.007400441;0.006956766;0.006649901;0.006485213;0.006460798;0.006572923;0.006810257;0.007159024;0.00760386;0.01535972;0.01579594;0.0162042;0.01658682;0.01695601;0.01731988;0.01768397;0.01805581;0.01843739;0.01882616;0.01922158;0.01961424;0.02000162;0.02037367;0.0207285;0.02106471;0.02138181;0.02168774;0.02198612;0.02228648;0.02259446;0.0229136;0.02324642;0.0235895;0.02394015;0.02428984;0.02463285;0.02495866;0.02526099;0.02553418;0.02576932;0.02596308;0.02611218;0.02621539;0.02627259;0.02629011;0.02626994;0.02621857;0.02614679;0.02605702;0.02596087;0.02586219;0.02576975;0.02568642;0.02561981;0.02557163;0.02554313;0.02553197;0.02553329;0.02553983;0.0255437;0.02553201;0.02549704;0.02542705;0.02531937;0.02517027;0.02497697;0.02474499;0.02447644;0.02418102;0.02386262;0.02353202;0.02319074;0.02284662;0.02249528;0.02213534;0.0217612;0.02136417;0.020934;0.02046454;0.01995078;0.01255804;0.01238942;0.01216754;0.01189113;0.01155841;0.01116698;0.01072642;0.0102457;0.009733028;0.009208706;0.01188551;0.01146679;0.01087596;0.01011365;0.00918724;0.008105064;0.006880517;0.005526708;0.004060497;0.002497214;0.0008519985;-0.0008539118;-0.002603009;-0.004372336;-0.006140092;-0.007879764;-0.009565474;-0.01117355;-0.01267718;-0.01405647;-0.01529469;-0.01637973;-0.01730808;-0.01808104;-0.01870651;-0.01919743;-0.01956863;-0.01983619;-0.0200208;-0.02013493;-0.02019508;-0.02021294;-0.02019528;-0.02015094;-0.02008185;-0.01999138;-0.01988175;-0.01975394;-0.01960988;-0.01944912;-0.01927422;-0.01908622;-0.01888037;-0.01865402;-0.01840139;-0.01810882;-0.01776896;-0.01736868;-0.01689674;-0.01634642;-0.01571357;-0.01500004;-0.01421277;-0.01336025;-0.01245968;-0.01152728;-0.01058379;-0.009647549;-0.008739661;-0.007878109;-0.007080437;-0.006360461;-0.005732435;-0.005205435;-0.004789054;-0.0044925;-0.004317211;-0.004265743;-0.004338255;-0.004526707;-0.004823191;-0.005211637;-0.005670533;-0.006179755;-0.006710348;-0.007235643;-0.00773006;-0.008165705;-0.008519587;-0.008770886;-0.008903461;-0.008904587;-0.008765164;-0.008480592;-0.008049832;-0.007478208;-0.006772893;-0.00594734;-0.02792562;-0.02861618;-0.02923964;-0.02983394;-0.03043906;-0.03109611;-0.03184276;-0.03271331;-0.03373021;-0.03491499;-0.03627658;-0.03781172;-0.03951366;-0.04136322;-0.04333803;-0.0454093;-0.04754635;-0.04972147;-0.05190488;-0.05407486;-0.07660198;-0.07655042;-0.07615443;-0.07536075;-0.07410332;-0.07231965;-0.06994721;-0.06692954;-0.06321897;-0.05878144;-0.05360131;-0.04767726;-0.04103017;-0.03369366;-0.02571965;0.04116979;0.05117327;0.06099979;0.07055841;0.07976762;0.08854303;0.09681562;0.1045113;0.1115646;0.117909;0.1234787;0.1282154;0.1320545;0.006350652;-0.006474335;-0.01892511;-0.03084856;-0.04210023;-0.05256123;-0.06213196;-0.070739;-0.07832867;-0.08487451;-0.09037341;-0.09083254;-0.08716246;-0.08314653;-0.07881409;-0.0741945;-0.06931047;-0.0641752;0.003079594;0.01186322;0.02108228;0.03073292;0.04079543;0.05123738;0.06200967;0.07304464;0.08425782;0.09554224;0.1067822;0.1178489;0.1286056;0.1389163;0.1486461;0.1576695;0.1658697;0.1731432;0.1794032;0.1845757;0.0873126;0.0720788;0.0562959;0.04011989;0.02373485;0.007334656;-0.008869017;-0.02466539;-0.03983529;-0.05417048;-0.0674721;-0.07955787;-0.09965529;-0.09175403;-0.0829797;0.01158012;0.01538672;0.01796508;0.01933762;0.01956621;0.01875147;0.01702631;0.01454702;0.01149055;0.00803738;0.004366999;0.0006459124;-0.002976164;-0.006376595;-0.009458938;-0.0121499;-0.01440124;-0.0161885;-0.0174988;-0.0183315;-0.01869884;-0.01861005;-0.01808637;-0.01714393;-0.01580144;0.0622598;0.06194583;0.06054045;0.05806557;0.05457574;0.05015059;0.04489226;0.03892007;0.03236865;0.02538885;0.01812861;0.01075281;0.003411013;-0.00373567;-0.01054893;-0.04169508;-0.04209667;-0.04174998;-0.04069631;-0.03898252;-0.03666392;-0.03380814;-0.03048648;-0.02678638;-0.02279691;-0.01861884;-0.01434868;-0.01969821;-0.02033344;-0.02107186;-0.02186659;-0.02267486;-0.02345547;-0.02417726;-0.02481556;-0.02535535;-0.02579165;0.01332332;0.01321279;0.01290602;0.01236314;0.01157124;0.01053335;0.009273767;0.007836525;0.006279422;0.004659086;0.0299426;0.0307667;0.03104569;0.03076954;0.02994096;0.02858353;0.02188476;0.02382907;0.02544444;0.04849901;0.04780325;0.04679145;0.04550091;0.04395793;0.04218166
"Factor-6";-0.003151526;-0.003256025;-0.003386339;-0.003533877;-0.003679932;-0.003813262;-0.003920583;-0.00398774;-0.004004831;-0.003961943;-0.003852069;-0.003670125;-0.003416708;-0.003095358;0.0004213938;0.0007140232;0.0009259108;0.001055655;0.001105156;0.001082323;0.0009952722;0.0008574161;0.0006800896;0.0004776087;0.0002622227;4.804389E-05;-0.0001536205;-0.0003288555;-0.0004644319;-0.0005472152;-0.0005648668;-0.0005066787;-0.0003645177;-0.0001336815;0.0001853192;0.000589438;0.001068069;0.001611487;0.002200958;0.002822463;0.003460207;0.004099897;0.004726741;0.00533448;0.005916663;0.006469895;0.006994232;0.007490956;0.007958298;0.00840489;0.008828097;0.00896282;0.007830721;0.006634342;0.005401963;0.004164684;0.002956673;0.001808168;0.0007499105;-0.0001919303;-0.000996219;-0.001645853;-0.002135494;-0.002459235;-0.002621333;-0.00263097;-0.002502343;-0.002254024;-0.001904813;-0.001478971;-0.0009989494;-0.000488304;0.002460825;0.002447477;0.002409438;0.002340374;0.00223055;0.002072955;0.001863542;0.001595997;0.001266714;0.0008754514;0.0004249584;-7.796846E-05;-0.0006277523;-0.001210685;-0.001816013;-0.002427175;-0.003033236;-0.003620351;-0.004180313;-0.004705179;-0.005194277;-0.005643445;-0.006055449;-0.006429106;-0.006767864;-0.007073761;-0.00734739;-0.007588222;-0.007792917;-0.007961182;-0.008090699;-0.008180151;-0.008229166;-0.008237158;-0.008208957;-0.008145677;0.005420105;0.005673576;0.005871632;0.006008194;0.006082654;0.006095996;0.00605415;0.00596329;0.005834304;0.005674295;0.001625683;0.001708315;0.00178896;0.001854485;0.001888873;0.001879005;0.001813385;0.001684516;0.001485867;0.001216811;-0.003052551;-0.003452519;-0.00376742;-0.003986029;-0.004096778;-0.004091397;-0.003971127;-0.00374192;-0.003415611;-0.003006959;-0.002534814;-0.002021329;-0.001487636;-0.000957948;-0.001213212;-0.001387408;-0.001514123;-0.001589007;-0.001611769;-0.001580993;-0.001498274;-0.001366208;-0.001191542;-0.0009793777;-0.0007428632;-0.0004946699;-0.0002466448;-1.730778E-05;0.0001815864;-0.0002819;-0.0006850758;-0.001030759;-0.001291533;-0.001446234;-0.001477765;-0.001372546;-0.001126326;-0.0007409304;-0.0002218233;0.0004194546;0.02125452;0.02150812;0.02167387;0.02175055;0.0217379;0.0216366;0.02145266;0.02118779;0.02084912;0.02044387;0.01997836;0.01946435;0.01890963;0.01832368;0.01771362;0.01708404;0.01643848;0.01577838;0.01510616;0.01441899;0.01371695;0.01300248;0.01227269;0.0115306;0.01077746;0.01001338;0.009240654;0.008460898;0.007672605;0.00687582;0.006069008;0.005249593;0.004414582;0.003565588;0.002697322;0.06916992;0.0715453;0.0737994;0.07586881;0.07768913;0.0791897;0.08029483;0.08092956;0.08102425;0.08050663;0.07932498;0.07742767;0.07477929;0.07135928;0.06716095;0.06219441;0.05648363;0.05007182;0.04301254;0.03537755;0.02724308;0.01869741;0.009834715;0.0007574797;-0.008436438;-0.003599151;-0.004978546;-0.006344278;-0.007666183;-0.008920261;-0.01008749;-0.01114874;-0.01209893;-0.01292224;-0.0136178;-0.01418494;-0.01462334;-0.01493482;-0.01512075;-0.0151927;-0.01515657;-0.01502039;-0.01480355;-0.01452169;-0.01419531;-0.01384776;-0.01350264;-0.01317686;-0.01289115;-0.01265753;-0.01248085;-0.01236018;-0.01228679;-0.01225156;-0.01223535;-0.01222276;-0.01219564;-0.01213964;-0.01204645;-0.01190547;-0.01171371;-0.01146863;-0.01117234;-0.01082374;-0.01042558;-0.009978217;-0.00948035;-0.008932723;-0.008337919;-0.007691272;-0.00700264;-0.006268226;-0.005499556;-0.004698112;-0.003872272;-0.003026043;-0.002174199;-0.00131524;-0.0004607344;0.0003869577;0.001220105;0.002036926;0.002832235;0.003606896;0.004357896;0.005085652;0.005792248;0.006477498;0.007145673;0.007795726;0.008432137;0.009051271;0.01499025;0.01490114;0.01472009;0.01444769;0.01409023;0.01365657;0.01316009;0.01261234;0.01203214;0.005996949;0.005723253;0.005453084;0.005178476;0.004892047;0.004579791;0.004238492;0.003861638;-0.0002228289;0.0003599771;0.001005681;0.001692137;0.002398546;0.003101782;0.003780747;0.004416395;0.004989443;0.005488551;0.005905547;0.00623291;0.006472068;0.006619417;0.00669019;0.006688156;0.006626391;0.006509542;0.006350474;0.006146552;0.005901919;0.005619091;0.005295393;0.004936452;0.004540293;0.004112826;0.0036629;0.003194515;0.002718806;0.002240316;-0.001571703;-0.001946754;-0.002321579;-0.002690058;-0.003055946;-0.003414637;-0.003761;-0.004095777;-0.004418234;-0.004727872;-0.00503428;-0.005337954;-0.005651547;-0.005978448;-0.006323097;-0.006689693;-0.007072962;-0.007469419;-0.007867439;-0.008257564;-0.008625065;-0.008963141;-0.009259956;-0.009509682;-0.009711501;-0.009863414;-0.009970292;-0.01003641;-0.01006976;-0.01007563;0.006823606;0.007508144;0.008065959;0.00849536;0.008806171;0.009012412;0.009131979;0.009186166;0.009190766;0.009169973;0.00913325;0.009098596;0.009075002;0.009071057;0.008594235;0.008283564;0.008019737;0.007801344;0.00762873;0.007497693;0.00740187;0.007329831;0.007279381;0.007243083;0.007212592;0.007189469;0.007171344;0.00715901;0.007151817;0.007157031;0.007179205;0.007224711;0.007295696;0.007401468;0.007545797;0.007733036;0.00796739;0.008252446;0.008592571;0.008986187;0.02740797;0.02852304;0.0296884;0.03090141;0.03215226;0.03343283;0.03472661;0.03601863;0.03728662;0.03850495;0.03964226;0.04066597;0.04154127;0.04222883;0.04269198;0.04289238;0.04279479;0.0423662;0.0415802;0.04041513;0.03886305;0.03691223;0.03457155;0.03184947;0.02876799;0.02535388;0.02164503;0.01768134;0.01351419;0.009200278;0.004805395;0.0004006831;-0.003939136;-0.02573621;-0.0237939;-0.02132823;-0.01842258;-0.01517747;-0.01171095;-0.008154256;-0.004643669;-0.0013182;0.001693094;0.004265441;0.006295149;0.007704346;0.008434554;0.00845666;0.007775903;0.006421562;0.00445522;0.001962606;-0.0009475999;-0.004149884;-0.007504696;-0.02142619;-0.02272908;-0.02331332;-0.0231353;-0.02218043;-0.0204609;-0.01802342;-0.0149372;-0.01129617;-0.007214619;-0.002815139;0.00177153;0.006414637;0.01098876;0.01537885;0.01948613;0.02322571;0.02652303;0.02932837;0.03160338;0.0333188;0.03446067;0.03502833;0.03502264;0.0344543;0.03334412;0.03171569;0.02959672;0.02702285;0.02403095;0.02066546;0.01697402;0.01301501;0.008845491;0.00453376;0.0001518944;-0.004222027;-0.008505388;-0.01261395;-0.01646479;-0.01997183;-0.0230628;-0.02566914;-0.02773433;-0.02921805;-0.03009965;-0.0303767;-0.03007343;-0.04969081;-0.05425243;-0.05871308;-0.06301212;-0.06710114;0.01329818;0.01820566;0.0227058;0.02676575;0.03036018;0.03347368;0.03609979;0.03823775;0.03989635;0.04108904;0.04183509;0.04216593;0.04211064;0.04171123;0.04101365;0.04006262;0.03891113;0.03760809;0.03620095;0.0347313;0.03323376;0.03173983;0.03027575;0.02885606;0.02749399;0.02619519;0.02496007;0.02378191;0.02265359;0.02155789;0.004600599;0.002873552;0.001091134;-0.0007295259;-0.002575052;-0.004420589;-0.006244536;-0.008022186;-0.009730211;-0.01133928;-0.012828;-0.01416872;-0.01534508;-0.01633516;-0.01712454;-0.01770147;-0.01805553;-0.01817853;0.006056358;0.007768498;0.009377855;0.01086734;0.01222132;0.01342617;0.01446993;0.01533772;0.01602342;0.01652141;0.01683279;0.01696037;0.01691529;0.01670989;0.01636057;0.01588988;0.01531545;0.01466032;0.01394667;0.01319377;0.01241524;0.01162566;0.01083215;0.01003476;0.009234113;0.008423625;0.007597568;0.006751609;0.005879319;0.004982453;0.004058327;0.003112438;0.00215479;0.001191319;0.000234095;-0.0007058484;0.005095068;0.006257545;0.007462096;0.008668344;0.009828405;0.01090583;0.01186489;0.01267733;0.01332512;0.0137938;0.01407763;0.01417298;0.0140796;0.01380731;0.01336511;0.01276623;0.01203005;0.01118068;0.01023926;0.00923075;0.0081855;0.007130662;0.0060887;0.0050919;0.004163287;0.003326343;0.001624754;0.002062674;0.002661585;0.003406911;0.004282349;0.005267536;0.006337848;0.007463317;0.008608925;0.009737833;0.01081166;0.01179173;0.01264151;0.01332835;0.01383062;0.01412576;0.01420498;0.01406802;0.0137252;0.01319308;0.01249625;0.01166188;0.0107295;0.009731884;0.008698332;0.007661731;0.006647321;0.005673298;0.004756668;0.003905512;0.003122503;0.002407559;0.001751221;0.001136322;0.0005422095;-6.058989E-05;-0.0007055058;-0.001431155;-0.002278037;-0.003285436;-0.004481314;-0.005897237;-0.00754569;-0.009434002;-0.0115647;-0.01392429;-0.04877593;-0.0520822;-0.0553047;-0.05844194;-0.0614779;-0.06441916;-0.06726934;-0.07003853;-0.1011768;-0.1019802;-0.1025052;-0.1027224;-0.1026029;-0.1021224;-0.1012606;-0.1000107;-0.09836604;-0.09633376;-0.09392641;-0.09115969;-0.08805224;-0.08463078;-0.08091769;-0.07693495;-0.07270654;0.1032377;0.1005289;0.09777445;0.09497418;0.09211402;0.08919572;0.08621297;0.08317144;0.08008815;0.07698005;0.07386366;0.07077139;0.0677198;0.064739;0.06185315;0.05908198;0.05644597;0.05397741;0.05168933;0.0496071;0.04774481;0.04611566;0.04471932;0.04355678;0.04260969;0.04185367;-0.002188843;-0.00367102;-0.005110069;-0.006475296;-0.007745105;-0.008881044;-0.009857296;-0.01064378;-0.0112135;-0.01154373;-0.01161837;-0.01142658;-0.01096793;-0.0102428;-0.009268158;-0.008059843;-0.006649632;-0.005064089;-0.003349587;-0.001548128;0.0002969273;0.002138404;0.003931294;0.005637141;0.007226091;0.008671897;0.009963959;0.01109248;0.01205536;0.012858;0.01350261;0.01399803;0.01435126;0.01457616;0.01467959;0.01468742;0.01461647;0.01449526;0.0143512;0.01421982;0.01413373;0.01412208;0.01421092;0.01442423;0.01477302;0.01526575;0.01589699;0.01665951;0.01753826;0.01851468;0.01956665;0.02066695;0.0217944;-0.04288689;-0.0433197;-0.04375864;-0.0442108;-0.04467681;-0.04514072;-0.04558821;-0.04599352;-0.04633157;-0.04657198;-0.04669349;-0.04667572;-0.0465188;-0.04622646;-0.04580872;-0.045291;-0.04470419;-0.04407843;-0.04344213;-0.04282463;-0.04225495;-0.04174506;-0.04130851;-0.04095802;-0.04069765;-0.04052537;-0.04043783;-0.04388983;-0.0439257;-0.04382731;-0.04357715;-0.04314984;-0.04253361;-0.04171819;-0.04069984;-0.03948917;-0.03809724;-0.03654541;-0.03485306;-0.03304384;-0.01162925;-0.01097961;-0.01046366;-0.01004593;-0.009685322;-0.009344945;-0.008997444;-0.008617087;-0.008194542;-0.007737095;-0.007248715;-0.006746764;-0.006240389;-0.005745224;-0.005260677;-0.004781383;-0.004299703;-0.003787882;-0.003228567;-0.00259864;-0.001879171;-0.001063698;-0.0001461378;0.0008629218;0.00195179;0.003095398;0.004269355;0.00544102;0.006579193;0.007652625;0.008624809;0.009467879;0.0101511;0.0106557;0.01096246;0.01106105;0.01094862;0.01062871;0.01011904;0.009430842;0.008595021;0.007648018;0.00662924;0.005583715;0.004559861;0.003600732;0.002746634;0.002025592;0.001458956;0.001050648;0.0008003043;0.0006893281;0.0007000527;0.0008011538;0.0009701006;0.001174239;0.001392956;0.001608314;0.001800864;0.001965088;0.002083932;0.002160318;0.002178151;0.002136351;0.00201149;0.00179419;0.001471506;0.001031692;0.000470794;-0.0002033298;-0.0009684523;0.01699832;0.017412;0.01762525;0.0176019;0.01731033;0.01672132;0.01582507;0.01462056;0.01311737;0.01134592;-0.01560208;-0.01455494;-0.01339834;-0.01214636;-0.01081375;-0.009426326;-0.00801197;-0.0066016;-0.005235616;-0.003949115;-0.002798408;-0.001822281;-0.001074988;-0.0005956851;-0.0004204722;-0.0005725297;-0.001056528;-0.001862488;-0.002957702;-0.004297582;-0.005818042;-0.007449285;-0.009117061;-0.01075161;-0.01228523;-0.01366697;-0.01485719;-0.01583002;-0.01658043;-0.01710322;-0.01741426;-0.01753211;-0.01747363;-0.01727472;-0.01695519;-0.0165484;-0.01608662;-0.01559876;-0.01511691;-0.01466719;-0.01427008;-0.01394049;-0.01367673;-0.01346545;-0.01328563;-0.01309615;-0.01285555;-0.0125199;-0.01204549;-0.01140044;-0.01056515;-0.009538405;-0.008336871;-0.006989102;-0.005543014;-0.004050818;-0.002575222;-0.001172374;9.924293E-05;0.001190775;0.00205896;0.002676423;0.003017501;0.003075965;0.00285002;0.002344182;0.00157859;0.0005808689;-0.0006179544;-0.001971313;-0.003431146;-0.004941249;-0.006445939;-0.007891651;-0.00922494;-0.01040496;-0.01140367;-0.0121953;-0.01277371;-0.01313831;-0.01329965;-0.01327436;-0.01308528;-0.01275008;-0.0122955;-0.01174605;-0.01112351;-0.01045652;0.04118328;0.04268841;0.04415181;0.04551958;0.04673945;0.04775387;0.04851252;0.04896115;0.04906892;0.04879718;0.04812869;0.04705568;0.04558026;0.04372119;0.04150302;0.03896092;0.03613319;0.03305784;0.02977987;0.02633559;-0.03744833;-0.04174612;-0.04596217;-0.05003506;-0.05389819;-0.05748324;-0.06072246;-0.06355634;-0.06593247;-0.06780955;-0.06916326;-0.06997887;-0.07025827;-0.07001463;-0.0692645;-0.05312458;-0.04976576;-0.04625856;-0.04263164;-0.03890462;-0.03510715;-0.03124865;-0.02735439;-0.02343969;-0.01953174;-0.01567241;-0.01189489;-0.008259399;-0.04637565;-0.05175479;-0.05638931;-0.06009261;-0.06269082;-0.06405307;-0.06408553;-0.06274597;-0.06003644;-0.05601715;-0.05079711;0.0367496;0.04124198;0.04496954;0.04795153;0.05021697;0.05181208;0.05279504;0.04477884;0.04353559;0.04236834;0.04130641;0.04037521;0.03959431;0.03898037;0.03853737;0.03825719;0.03810374;0.03803657;0.03798326;0.03786606;0.0375884;0.0370562;0.03617445;0.03485111;0.03300928;0.0305886;0.02754542;-0.08747248;-0.09215526;-0.09570803;-0.09804708;-0.0991039;-0.09886377;-0.09733397;-0.09457044;-0.0906551;-0.08570801;-0.07986814;-0.07330287;0.00813024;0.0128488;0.0172768;0.04616751;0.04573715;0.04458606;0.04273555;0.0402586;0.03724809;0.03383574;0.03017539;0.02643532;0.02277935;0.01936172;0.01631538;0.01372689;0.01165297;0.0100912;0.009001471;0.008308531;0.007887885;0.007608634;0.007319368;0.006864895;0.00610674;0.004904858;0.00315436;0.0007690942;-0.06091824;-0.05662619;-0.05182409;-0.04663951;-0.04120301;-0.0356584;-0.03013355;-0.02475922;-0.01965475;-0.0149081;-0.01060804;-0.00680291;-0.003535147;-0.0008075905;0.00138283;0.003068964;0.00192303;0.000644064;-0.0007180683;-0.002107131;-0.003464065;-0.004751525;-0.005919298;-0.006940331;-0.007783912;-0.008431616;-0.008866346;0.01016599;0.009563605;0.008784239;0.007940461;0.007147771;0.006498084;0.00607075;0.005905115;0.006017669;0.006388074;0.02454997;0.02821284;0.03121048;0.03333829;0.03447267;0.03455712;0.03361069;0.03173579;0.02909906;0.0258984;0.0206817;0.02041687;0.01918701;0.01695848;0.01372877;0.009550934;0.01834869;0.01925675;0.01852166;0.006258248;0.007919048;0.008947038;0.009453246;0.009522962;0.009229787
